svm_type c_svc
kernel_type rbf
gamma 0.111111
nr_class 2
total_sv 300
rho 0.067093
label 0 1
probA -2.06527
probB -0.136171
nr_sv 148 152
SV
1 1:-0.114702 2:0.998765 3:-0.999418 4:0.842235 5:-0.421402 6:-0.9461 7:-0.968488 8:-0.67093 9:1 
1 1:-0.666854 2:0.784087 3:-0.994906 4:0.603426 5:0.0113324 6:-0.828007 7:-0.866572 8:0.0111042 9:0.16666 
1 1:0.672998 2:0.493167 3:-0.930302 4:0.846704 5:-0.643884 6:-0.83857 7:-0.825124 8:-0.127099 9:0.53124 
1 1:0.694939 2:0.119904 3:-0.999819 4:0.811844 5:-0.294458 6:-0.919556 7:-0.952023 8:-0.588419 9:0.88888 
1 1:0.289421 2:0.969503 3:-0.993221 4:0.331248 5:0.370674 6:-0.95558 7:-0.967637 8:0.216565 9:1 
1 1:0.506537 2:0.938581 3:-0.993221 4:0.68879 5:-0.202052 6:-0.823944 7:-0.833925 8:-0.693218 9:0.26316 
1 1:0.476877 2:0.734481 3:-0.982571 4:0.785028 5:-0.429588 6:-0.786024 7:-0.801561 8:-0.364174 9:0.1923 
1 1:0.033058 2:0.23591 3:-0.990593 4:0.662868 5:-0.485639 6:-0.985915 7:-0.988361 8:-0.652278 9:1 
1 1:0.188762 2:0.987222 3:-0.953247 4:0.789348 5:-0.041967 6:-0.973185 7:-0.981263 8:-0.9182 9:1 
1 1:0.366856 2:0.51687 3:-0.985278 4:-0.547114 5:0.307506 6:-0.93662 7:-0.964514 8:-0.049699 9:0.81818 
1 1:0.253122 2:-0.281887 3:-0.99992 4:0.592402 5:0.4776 6:-0.959913 7:-0.975586 8:0.212034 9:1 
1 1:-0.488692 2:0.759497 3:-0.967167 4:0.82108 5:-0.384264 6:-0.988895 7:-0.990064 8:-0.719009 9:1 
1 1:-0.0919954 2:0.833192 3:-0.993822 4:-0.229795 5:0.140526 6:-0.855905 7:-0.883038 8:0.0255937 9:0.57894 
1 1:-0.230821 2:0.996024 3:-0.99994 4:0.718436 5:-0.344743 6:-0.950163 7:-0.961675 8:0.0232491 9:1 
1 1:0.541823 2:0.324583 3:-0.961611 4:0.434488 5:-0.018677 6:-0.903034 7:-0.936125 8:-0.0225905 9:0.78948 
1 1:-0.478723 2:0.994402 3:-1 4:0.806182 5:-0.293307 6:-0.947454 7:-0.960823 8:0.174203 9:1 
1 1:-0.127641 2:0.581416 3:-0.992298 4:0.733631 5:-0.47105 6:-0.980769 7:-0.988077 8:-0.403217 9:1 
1 1:0.230821 2:0.308562 3:-0.974668 4:0.623687 5:-0.252956 6:-0.956121 7:-0.956565 8:-0.710263 9:0.61904 
1 1:0.481288 2:0.703405 3:-0.989671 4:0.363575 5:0.148092 6:-0.904388 7:-0.94748 8:-0.00786385 9:0.90476 
1 1:-0.562549 2:0.370792 3:-0.963416 4:0.73825 5:-0.461 6:-0.988624 7:-0.990348 8:-0.745564 9:1 
1 1:0.638702 2:0.542966 3:1 4:0.265102 5:-0.715957 6:-0.980769 7:-0.985238 8:-0.254106 9:1 
1 1:0.476607 2:0.596742 3:0.0864254 4:0.502868 5:-0.670732 6:-0.889491 7:-0.832221 8:-0.302422 9:0.7191 
1 1:0.447712 2:0.797869 3:0.0750732 4:0.558436 5:-0.68933 6:-0.8513 7:-0.781973 8:-0.130498 9:0.70802 
1 1:0.868353 2:0.951513 3:-0.953388 4:1 5:-0.00834665 6:-0.473727 7:-0.917104 8:-1 9:-1 
1 1:0.589801 2:0.483902 3:-0.986161 4:0.719628 5:0.193989 6:-0.901138 7:-0.899787 8:0.25221 9:0.6 
1 1:0.855391 2:0.824506 3:0.649565 4:0.576313 5:-0.709892 6:-0.702871 7:-0.550035 8:-0.299656 9:0.58096 
0.5182327288698176 1:0.601841 2:0.76409 3:-0.540836 4:0.274786 5:-0.64798 6:-0.322048 7:-0.326331 8:-0.394154 9:-0.05882 
1 1:0.765511 2:0.962207 3:-0.0544948 4:0.379963 5:-0.87946 6:-0.976436 7:-0.987793 8:-0.618004 9:1 
1 1:-0.21014 2:0.617434 3:-0.988367 4:0.524022 5:-0.411849 6:-0.991603 7:-0.990916 8:-0.687211 9:1 
1 1:0.234489 2:0.99695 3:-0.984717 4:0.547858 5:0.251489 6:-0.800108 7:-0.858339 8:-0.123332 9:0.36842 
1 1:0.770979 2:0.623031 3:-0.96143 4:0.895866 5:-0.733626 6:-0.745666 7:-0.632647 8:-0.244728 9:0.59848 
1 1:0.585616 2:0.521695 3:-0.999759 4:0.839553 5:0.439638 6:-0.930119 7:-0.957133 8:-0.517236 9:1 
1 1:0.424151 2:0.588944 3:0.737755 4:0.498696 5:-0.71258 6:-0.976436 7:-0.982967 8:-0.442286 9:1 
1 1:0.890564 2:0.64685 3:0.795559 4:0.743166 5:-0.0642578 6:-0.389762 7:-0.622427 8:-0.56787 9:-0.41666 
1 1:-0.0486531 2:0.47649 3:-0.983995 4:0.0598138 5:0.730406 6:-0.989707 7:-0.990916 8:-0.161874 9:1 
1 1:0.548642 2:0.794472 3:0.452906 4:0.707709 5:-0.872846 6:-0.89247 7:-0.835912 8:-0.840352 9:0.77142 
1 1:0.493395 2:0.534396 3:-0.979281 4:0.1854 5:0.172008 6:-0.904117 7:-0.968204 8:-0.533095 9:0.92592 
1 1:-0.121363 2:0.448618 3:-0.9787 4:0.101527 5:0.264203 6:-0.934995 7:-0.956565 8:0.0956703 9:0.91666 
1 1:0.6705 2:0.802347 3:-0.959224 4:0.891844 5:-0.704727 6:-0.771939 7:-0.677218 8:-0.121435 9:0.61314 
1 1:0.712267 2:0.690009 3:0.296582 4:0.662421 5:-0.888815 6:-0.75623 7:-0.640596 8:-0.825151 9:0.58192 
1 1:0.445732 2:0.928274 3:-0.992459 4:0.294153 5:-0.291344 6:-0.966143 7:-0.978424 8:-0.236271 9:1 
1 1:-0.0999842 2:0.669626 3:-0.992639 4:0.769683 5:-0.471202 6:-0.983207 7:-0.991199 8:-0.395471 9:1 
1 1:0.625672 2:0.961859 3:-0.994645 4:0.843277 5:-0.628757 6:-0.760293 7:-0.691128 8:-0.234006 9:0.52942 
1 1:0.500124 2:-0.0291461 3:-0.996811 4:0.795158 5:-0.644568 6:-0.958559 7:-0.972463 8:-0.295494 9:1 
1 1:0.297522 2:0.819642 3:-0.439548 4:0.303687 5:0.141589 6:-0.229144 7:-0.550887 8:-0.766008 9:-0.64444 
1 1:0.241195 2:0.982358 3:-0.671166 4:0.773557 5:-0.793236 6:-0.986186 7:-0.988361 8:-0.726991 9:1 
1 1:0.00285798 2:0.933794 3:-0.987525 4:0.512551 5:-0.436559 6:-0.960184 7:-0.967637 8:-0.104522 9:1 
0.5609366128248202 1:-0.39089 2:0.712593 3:-0.216635 4:0.478138 5:0.0383034 6:-0.0176056 7:-0.344784 8:-0.690952 9:-0.65384 
1 1:-0.533924 2:0.810145 3:-0.164186 4:0.404842 5:-0.707958 6:-0.980769 7:-0.986373 8:-0.346708 9:1 
1 1:0.52472 2:0.744441 3:-0.302299 4:0.6 5:-0.734572 6:-0.699079 7:-0.575018 8:-0.407669 9:0.45162 
1 1:-0.0938632 2:0.666422 3:0.0652052 4:0.357169 5:0.189431 6:-0.110509 7:-0.382541 8:-0.812954 9:-0.5122 
1 1:-0.236627 2:0.981509 3:-0.998576 4:0.922086 5:-0.479709 6:-0.964789 7:-0.973882 8:-0.073093 9:1 
1 1:0.492045 2:0.994634 3:-0.99984 4:0.909721 5:-0.2717 6:-0.96533 7:-0.963662 8:0.909744 9:1 
1 1:0.864482 2:0.873417 3:-0.942396 4:0.693855 5:-0.0464193 6:-0.759751 7:-0.820014 8:-0.0382128 9:0.29412 
1 1:0.543061 2:0.328521 3:-0.899755 4:0.0575791 5:0.09245 6:-0.875135 7:-0.897516 8:-0.133132 9:0.71428 
0.8012427692744183 1:-0.451246 2:-0.097012 3:-0.96821 4:0.453855 5:-0.335727 6:-0.964789 7:-0.974734 8:-0.135951 9:0.95122 
0.933353354616019 1:0.209825 2:0.647043 3:-0.977215 4:0.853408 5:-0.753913 6:-0.964518 7:-0.980412 8:-0.377662 9:1 
1 1:0.718883 2:0.216144 3:-0.958923 4:0.494674 5:-0.26605 6:-0.802275 7:-0.821434 8:-0.530645 9:0.06666 
1 1:0.720706 2:0.654918 3:-0.964379 4:0.41527 5:0.341745 6:-0.830715 7:-0.829099 8:-0.162506 9:0.27272 
1 1:-0.0571146 2:0.151482 3:-0.996149 4:0.661974 5:-0.212937 6:-0.881094 7:-0.934422 8:-0.570768 9:1 
1 1:0.472422 2:-0.376892 3:-0.99986 4:0.797989 5:-0.0219315 6:-0.859426 7:-0.861746 8:0.494869 9:0.5 
1 1:0.885523 2:0.311226 3:-0.885395 4:0.543836 5:0.0442808 6:-0.405471 7:-0.615046 8:-0.371761 9:0.08108 
1 1:0.692126 2:-0.0396464 3:-0.957419 4:0.560968 5:-0.459884 6:-0.927411 7:-0.950887 8:-0.467893 9:1 
1 1:0.167473 2:0.732165 3:-0.947752 4:0.666145 5:0.0982696 6:-0.755146 7:-0.863733 8:-0.0616594 9:0.61904 
1 1:0.573396 2:-0.13882 3:-0.921417 4:0.683873 5:0.185411 6:-0.554713 7:-0.658197 8:-0.202287 9:0.14286 
1 1:0.56678 2:0.903297 3:-0.887561 4:0.749274 5:0.0316892 6:-0.768147 7:-0.833073 8:-0.576696 9:-0.01886 
1 1:0.237572 2:0.5813 3:-0.931225 4:0.818399 5:0.329697 6:-0.950433 7:-0.978141 8:-0.268464 9:1 
1 1:0.351666 2:0.311689 3:-0.789001 4:0.528194 5:0.0513683 6:-0.786836 7:-0.807523 8:-0.257347 9:0.21212 
1 1:0.000652609 2:-0.394032 3:0.838241 4:0.556499 5:0.632186 6:-0.978873 7:-0.984386 8:0.216407 9:1 
1 1:0.647366 2:0.788295 3:-0.970717 4:0.697579 5:-0.835977 6:-0.924702 7:-0.963094 8:-0.441495 9:1 
1 1:0.0618854 2:0.37998 3:-0.997954 4:0.738994 5:-0.112246 6:-0.797129 7:-0.871682 8:-0.72931 9:0.46428 
1 1:0.721313 2:0.500077 3:-0.998014 4:0.905549 5:-0.171564 6:-0.777898 7:-0.766927 8:-0.799544 9:0.2 
1 1:0.127934 2:-0.439121 3:-0.95778 4:0.306667 5:0.603024 6:-0.961809 7:-0.973314 8:-0.73824 9:1 
1 1:0.832167 2:-0.137431 3:-0.999198 4:0.911359 5:-0.376224 6:-0.880282 7:-0.918524 8:-0.554961 9:0.45454 
1 1:0.399509 2:0.446418 3:-0.998817 4:0.822123 5:-0.54394 6:-0.944745 7:-0.940951 8:-0.558729 9:0.7 
1 1:0.826766 2:0.702478 3:-0.966726 4:0.801117 5:-0.800002 6:-0.865655 7:-0.861746 8:-0.121356 9:0.73684 
1 1:0.799109 2:0.601181 3:-0.98939 4:0.771769 5:-0.54685 6:-0.232124 7:-0.379702 8:-0.335722 9:-0.27586 
1 1:0.921754 2:0.727262 3:-0.989691 4:0.851769 5:-0.737324 6:-0.503792 7:-0.623563 8:-0.645692 9:-0.17894 
1 1:0.436213 2:0.158779 3:-0.999218 4:0.722905 5:-0.444382 6:-0.968581 7:-0.971611 8:-0.324947 9:1 
1 1:-0.630488 2:0.661133 3:-0.909563 4:0.875009 5:-0.000166524 6:-0.492687 7:-0.882186 8:-1 9:-0.82608 
1 1:0.612733 2:0.0391831 3:-0.949557 4:0.44432 5:-0.00766303 6:-0.636241 7:-0.778566 8:-0.287511 9:-0.1282 
1 1:0.593109 2:0.75305 3:-0.998054 4:0.709497 5:-0.885063 6:-0.981311 7:-0.989496 8:-0.0103666 9:1 
1 1:0.438936 2:-0.0480235 3:-0.999278 4:0.712775 5:0.335546 6:-0.961809 7:-0.959688 8:-0.455115 9:1 
1 1:0.418773 2:0.276868 3:-0.999599 4:0.602831 5:0.220773 6:-0.906826 7:-0.930731 8:0.192065 9:1 
1 1:0.65621 2:0.137006 3:-0.927153 4:0.808864 5:0.218599 6:-0.87026 7:-0.94379 8:-0.0758592 9:0.81818 
1 1:0.789657 2:-0.17893 3:-0.962834 4:0.815866 5:0.25236 6:-0.806609 7:-0.960823 8:-0.643374 9:1 
1 1:0.466773 2:0.803081 3:-0.933411 4:0.712775 5:-0.390318 6:-0.858072 7:-0.900639 8:-0.205053 9:0.46666 
1 1:0.0966762 2:0.755636 3:-0.958382 4:0.834339 5:-0.0677285 6:-0.839924 7:-0.920795 8:-0.54964 9:0.3913 
1 1:0.830974 2:0.778413 3:-0.97525 4:0.928939 5:-0.839623 6:-0.593716 7:-0.563378 8:-0.607598 9:0.10344 
1 1:0.110584 2:0.229656 3:-0.999258 4:0.738399 5:0.913074 6:-0.953413 7:-0.971611 8:-0.245966 9:1 
1 1:0.380291 2:0.258416 3:-0.999338 4:0.593445 5:0.0800688 6:-0.921993 7:-0.963662 8:-0.580331 9:1 
1 1:-0.603461 2:0.296518 3:-0.9999 4:0.627858 5:0.871099 6:-0.969122 7:-0.973314 8:-0.117405 9:1 
1 1:0.949524 2:0.0304972 3:-0.999819 4:0.790689 5:-0.30577 6:-0.959642 7:-0.981547 8:-0.4455 9:1 
1 1:0.2993 2:0.93638 3:-0.889125 4:0.835531 5:0.0795722 6:-0.875135 7:-0.912278 8:-0.143749 9:0.7551 
1 1:-0.785427 2:0.93638 3:-0.918168 4:0.836872 5:-0.290549 6:-0.954225 7:-0.966217 8:-0.889537 9:1 
1 1:0.821928 2:0.724714 3:-0.962112 4:0.783687 5:-0.706813 6:-0.943933 7:-0.95912 8:-0.299156 9:1 
1 1:0.44544 2:0.212129 3:-0.999699 4:0.752402 5:-0.582194 6:-0.977248 7:-0.984386 8:-0.416626 9:1 
1 1:0.781983 2:0.791577 3:-0.961992 4:0.822719 5:-0.793598 6:-0.907367 7:-0.963946 8:-0.298339 9:1 
1 1:0.797826 2:-0.181671 3:-0.998837 4:0.757318 5:-0.45639 6:-0.903846 7:-0.896664 8:-0.279055 9:0.70968 
1 1:0.814006 2:0.505752 3:-0.997894 4:0.929534 5:-0.238302 6:-0.914951 7:-0.910859 8:-0.482646 9:0.60656 
1 1:0.388573 2:0.376428 3:-0.997914 4:0.895568 5:-0.49878 6:-0.966143 7:-0.975018 8:-0.375186 9:0.94594 
1 1:0.850102 2:0.784937 3:-0.994324 4:0.781006 5:-0.731137 6:-0.986457 7:-0.992619 8:-0.177971 9:1 
1 1:0.56867 2:0.133532 3:-0.966645 4:0.415866 5:-0.225038 6:-0.877844 7:-0.988644 8:-0.854341 9:1 
1 1:-0.520872 2:0.775208 3:-0.979522 4:0.722011 5:-0.17521 6:-0.920368 7:-0.967353 8:0.312881 9:1 
1 1:-0.472917 2:0.799722 3:-0.924927 4:0.770577 5:-0.0072248 6:-0.52221 7:-0.756139 8:-0.762003 9:-0.64706 
1 1:0.0787632 2:0.879053 3:-0.939568 4:0.743762 5:-0.738879 6:-0.956934 7:-0.982683 8:-0.488468 9:1 
1 1:0.325652 2:0.734713 3:-0.960889 4:0.529385 5:-0.514089 6:-0.937703 7:-0.974166 8:0.23116 9:1 
1 1:-0.257893 2:0.0958539 3:-0.736411 4:0.618026 5:0.563041 6:-0.984561 7:-0.991199 8:-0.144197 9:1 
1 1:0.371447 2:0.960083 3:-0.135806 4:0.518808 5:0.522444 6:-0.992145 7:-0.991483 8:-0.498136 9:1 
1 1:0.453001 2:0.38994 3:-0.997754 4:0.87933 5:-0.497623 6:-0.921723 7:-0.928176 8:-0.140614 9:0.6087 
1 1:0.789747 2:0.724097 3:-0.96135 4:0.769683 5:-0.708653 6:-0.950975 7:-0.964798 8:-0.279977 9:1 
1 1:0.765533 2:0.804007 3:-0.963958 4:0.828082 5:-0.711744 6:-0.937703 7:-0.966785 8:0.0740941 9:0.9726 
1 1:0.43484 2:-0.198116 3:-0.999378 4:0.643203 5:-0.495088 6:-0.973185 7:-0.981547 8:-0.185795 9:1 
1 1:0.799154 2:0.776753 3:-0.995226 4:0.792775 5:-0.792447 6:-0.989707 7:-0.992903 8:-0.355454 9:1 
1 1:0.62691 2:0.235485 3:-0.997453 4:0.846108 5:-0.654466 6:-0.973998 7:-0.982115 8:0.161347 9:1 
1 1:-0.529851 2:0.788527 3:-0.995587 4:1 5:-0.00834665 6:-0.543337 7:-0.936409 8:-1 9:-1 
1 1:0.799716 2:-0.178389 3:-0.999037 4:0.8254 5:-0.427455 6:-0.929036 7:-0.948048 8:0.0333917 9:0.90322 
1 1:0.755181 2:0.130096 3:-0.999519 4:0.916127 5:-0.394887 6:-0.879469 7:-0.875656 8:-0.268965 9:0.29412 
1 1:0.325585 2:-0.146155 3:-0.999779 4:0.569311 5:0.112526 6:-0.955038 7:-0.974166 8:0.0831039 9:1 
1 1:0.406621 2:-0.00447807 3:-0.999519 4:0.692365 5:-0.517314 6:-0.968581 7:-0.984102 8:-0.366124 9:1 
1 1:0.0012152 2:0.71433 3:-0.95792 4:0.788305 5:-0.495099 6:-0.969664 7:-0.973031 8:-0.233373 9:1 
1 1:0.426289 2:0.248147 3:-0.999198 4:0.808119 5:-0.624503 6:-0.962893 7:-0.971043 8:-0.543607 9:1 
1 1:-0.470284 2:0.545167 3:0.989972 4:0.552328 5:-0.538244 6:-0.852925 7:-0.855784 8:0.339884 9:0.44 
1 1:-0.294192 2:-0.323078 3:-0.970697 4:1 5:-0.00834665 6:-0.655742 7:-0.956281 8:-1 9:-1 
1 1:-0.267997 2:0.736334 3:0.717137 4:0.683426 5:-0.680589 6:-0.877031 7:-0.895245 8:-0.090296 9:0.73334 
1 1:0.31323 2:0.425687 3:-0.933652 4:0.858175 5:0.0940218 6:-0.790628 7:-0.887012 8:-0.404165 9:-0.14286 
1 1:0.658213 2:0.875926 3:-0.949236 4:0.825549 5:-0.519166 6:-0.900596 7:-0.878779 8:-0.646034 9:0.5 
1 1:0.00913653 2:0.356586 3:0.336817 4:0.0824581 5:0.97009 6:-0.980498 7:-0.985806 8:-1 9:1 
1 1:-0.623669 2:0.822074 3:-0.0427815 4:-0.113892 5:1 6:-0.976706 7:-0.981263 8:-0.159661 9:0.92156 
1 1:-0.312285 2:0.337361 3:-0.83088 4:0.0133333 5:0.341062 6:-0.898971 7:-0.879063 8:0.884558 9:0.47368 
1 1:0.136328 2:0.706146 3:-0.939227 4:0.271955 5:-0.261901 6:-0.897616 7:-0.93215 8:0.0455629 9:0.88 
1 1:-0.592637 2:0.976413 3:-0.964038 4:0.276872 5:-0.0904517 6:-0.961809 7:-0.983251 8:-0.721828 9:1 
1 1:0.0511736 2:0.826127 3:-0.923944 4:0.68581 5:0.0689848 6:-0.958559 7:-0.970476 8:-0.279503 9:1 
1 1:0.142359 2:0.949931 3:-0.917847 4:0.790391 5:-0.407204 6:-0.933369 7:-0.931583 8:0.154919 9:0.78572 
1 1:0.490492 2:-1 3:-0.999739 4:0.485587 5:0.536596 6:-0.986186 7:-0.987225 8:-0.481144 9:1 
1 1:0.720053 2:0.839793 3:-0.987304 4:0.410801 5:-0.389558 6:-0.942849 7:-0.956281 8:-0.199521 9:0.93548 
1 1:0.735626 2:0.571649 3:-0.957319 4:0.550689 5:-0.000125623 6:-0.851571 7:-0.879631 8:-0.273443 9:0.21428 
1 1:0.439386 2:0.624807 3:-0.971098 4:1 5:-0.00834665 6:-0.610509 7:-0.932434 8:-1 9:-1 
1 1:-0.362333 2:0.285979 3:-0.976674 4:0.0271881 5:-0.253721 6:-0.941224 7:-0.966501 8:-0.244543 9:0.86364 
1 1:0.152238 2:0.916847 3:-0.92958 4:0.796648 5:-0.226715 6:-0.559588 7:-0.632079 8:-0.101624 9:0.05882 
1 1:0.0582848 2:0.956262 3:-0.961631 4:0.776238 5:0.313693 6:-0.89545 7:-0.886444 8:-0.245228 9:0.5 
1 1:-0.245719 2:0.305667 3:-0.99992 4:0.534749 5:-0.246418 6:-0.92091 7:-0.968772 8:-0.0154247 9:1 
1 1:0.22677 2:0.200394 3:-0.998997 4:0.668529 5:-0.51285 6:-0.945558 7:-0.965082 8:-0.0399515 9:0.96876 
1 1:0.529896 2:0.770846 3:-0.907999 4:0.707858 5:0.040553 6:-0.93039 7:-0.954862 8:-0.0780984 9:1 
1 1:-0.0609177 2:0.894688 3:-0.965362 4:0.627114 5:-0.162647 6:-0.778169 7:-0.834209 8:-0.490549 9:0.0909 
1 1:-0.285055 2:0.997452 3:-0.956396 4:0.779963 5:0.108898 6:-0.654117 7:-0.78538 8:-0.479932 9:-0.18518 
1 1:0.131962 2:0.643993 3:-0.893678 4:0.812588 5:0.0248413 6:-0.915764 7:-0.940667 8:-0.374001 9:1 
1 1:0.73315 2:0.813774 3:-0.949176 4:0.814227 5:0.0499777 6:-0.815276 7:-0.922782 8:-0.181158 9:0.64706 
-0.05109611228913223 1:0.261471 2:-0.16426 3:-0.952104 4:0.681639 5:0.371299 6:-0.966956 7:-0.985806 8:-0.696879 9:1 
-1 1:-0.877444 2:0.931092 3:-0.960648 4:-0.465773 5:0.363072 6:-0.958288 7:-0.985522 8:-0.563234 9:1 
-1 1:-0.742602 2:0.358593 3:-0.991255 4:0.447449 5:0.356212 6:-0.978873 7:-0.989212 8:-0.667716 9:1 
-0.9995169682177496 1:-0.768099 2:0.580644 3:-0.967187 4:-0.542942 5:0.461602 6:-0.984832 7:-0.990916 8:-0.907531 9:1 
-1 1:0.147985 2:-0.150942 3:-0.988106 4:0.288939 5:0.341289 6:-0.960726 7:-0.990348 8:-0.645639 9:1 
-1 1:0.126786 2:0.884998 3:-0.994906 4:0.259888 5:-0.526809 6:-0.935536 7:-0.980979 8:-0.473715 9:1 
-1 1:0.798209 2:0.629015 3:-0.990052 4:0.941006 5:0.024333 6:-0.669014 7:-0.86061 8:-0.994599 9:-0.66666 
-1 1:0.15118 2:0.849637 3:-0.990052 4:0.694153 5:-0.0878867 6:-0.797129 7:-0.816324 8:0.0887417 9:0.0909 
-1 1:0.735221 2:0.626737 3:-0.986241 4:0.717542 5:0.14842 6:-0.764897 7:-0.83137 8:-0.807816 9:-0.30434 
-1 1:-0.0569795 2:0.483632 3:-0.992037 4:-1 5:-0.29721 6:-0.96831 7:-0.976437 8:-0.30532 9:1 
-1 1:0.184036 2:0.612531 3:0.799671 4:0.784432 5:-0.255427 6:-0.867822 7:-0.881618 8:-0.413043 9:-0.06666 
-1 1:-0.674055 2:0.443098 3:-0.994745 4:0.736462 5:0.292156 6:-0.937432 7:-0.973598 8:-0.132869 9:1 
-1 1:-0.320341 2:0.783045 3:-0.987123 4:0.648417 5:0.441297 6:-0.927681 7:-0.936977 8:0.0632665 9:0.82352 
-1 1:0.592344 2:0.894341 3:-0.987645 4:0.109721 5:-0.287733 6:-0.96831 7:-0.981547 8:-0.0723817 9:1 
-1 1:0.8517 2:0.283972 3:-0.986562 4:0.295791 5:-0.499417 6:-0.97481 7:-0.981263 8:0.070801 9:1 
-1 1:0.0608277 2:0.0565936 3:-0.951101 4:0.333035 5:0.353945 6:-0.974269 7:-0.978424 8:-0.308719 9:1 
-1 1:0.368499 2:0.829061 3:-0.960728 4:0.760447 5:-0.00758707 6:-0.92416 7:-0.936409 8:-0.989357 9:0.61904 
-1 1:-0.0126021 2:0.405188 3:-0.996089 4:0.647374 5:-0.00441435 6:-0.899783 7:-0.909155 8:-0.888273 9:0.28302 
-1 1:0.170196 2:0.680937 3:-0.995387 4:0.662719 5:0.212528 6:-0.827465 7:-0.830234 8:-0.846727 9:0.07692 
-1 1:0.459572 2:0.532736 3:-0.979181 4:0.769981 5:-0.0821431 6:-0.897887 7:-0.904329 8:-0.812611 9:0.11112 
-1 1:-0.280127 2:0.151367 3:-0.854768 4:0.708156 5:0.315797 6:-0.986728 7:-0.991199 8:-0.602566 9:1 
-1 1:-0.455431 2:0.891175 3:-0.977717 4:0.585996 5:0.422425 6:-0.924702 7:-0.942654 8:-0.21999 9:0.86364 
-1 1:0.548102 2:0.498186 3:-0.967327 4:0.726927 5:0.00757538 6:-0.894366 7:-0.9489 8:-0.103942 9:1 
-1 1:-0.422171 2:0.505598 3:-0.977356 4:0.654078 5:0.422886 6:-0.926598 7:-0.958268 8:-0.195437 9:0.93104 
-1 1:-0.0161352 2:0.699004 3:-0.96839 4:-0.336462 5:0.363627 6:-0.94935 7:-0.964514 8:-0.215222 9:0.90244 
-1 1:0.427662 2:0.786481 3:-0.614746 4:0.587039 5:-0.00785 6:-0.836674 7:-0.88247 8:-0.983614 9:-0.04348 
-1 1:0.464208 2:0.618476 3:-0.595732 4:0.57825 5:-0.0270149 6:-0.774106 7:-0.883605 8:-0.990674 9:-0.52942 
-0.499484094071915 1:0.165065 2:0.761851 3:-0.911569 4:0.331099 5:0.22966 6:-0.958559 7:-0.98467 8:0.232056 9:1 
-1 1:0.656795 2:0.446958 3:-0.818464 4:0.39203 5:-0.218313 6:-0.97779 7:-0.980128 8:-0.330005 9:0.95122 
-1 1:-0.781781 2:0.986566 3:-0.974147 4:-0.228305 5:0.242783 6:-0.974269 7:-0.984954 8:-0.571427 9:1 
-1 1:-0.324504 2:0.307288 3:-0.923262 4:0.294004 5:0.262112 6:-0.957476 7:-0.971611 8:-0.549982 9:1 
-1 1:0.474357 2:0.996101 3:-0.971098 4:0.428827 5:-0.276959 6:-0.942037 7:-0.956281 8:-0.351318 9:1 
-1 1:-0.0137048 2:0.78679 3:-0.984275 4:0.375493 5:-0.266535 6:-0.991062 7:-0.990916 8:-0.718219 9:1 
-1 1:-0.125571 2:0.178351 3:-0.955714 4:0.628007 5:0.288615 6:-0.989437 7:-0.990916 8:-0.523032 9:1 
-1 1:-0.252965 2:0.579602 3:-0.974969 4:0.506145 5:-0.373636 6:-0.98429 7:-0.989212 8:-0.581464 9:1 
-1 1:0.428922 2:0.654107 3:-0.984656 4:0.596872 5:-0.633659 6:-0.932015 7:-0.925621 8:-0.0463269 9:0.6923 
-1 1:0.0701442 2:0.488033 3:-0.978559 4:0.836574 5:0.351725 6:-0.9526 7:-0.968488 8:0.245808 9:1 
-1 1:0.0077638 2:0.488033 3:-0.979863 4:0.810056 5:0.220153 6:-0.961268 7:-0.980979 8:-0.0364477 9:1 
-1 1:0.317371 2:0.979617 3:-0.988447 4:0.751508 5:-0.0307485 6:-0.95558 7:-0.968772 8:-0.0928514 9:1 
-1 1:-0.0902851 2:0.322923 3:-0.932649 4:0.1927 5:0.318023 6:-0.964789 7:-0.976153 8:-0.233215 9:1 
-0.3859426674305657 1:0.80595 2:0.718267 3:-0.926311 4:0.370577 5:-0.0378594 6:-0.830715 7:-0.907452 8:-0.911087 9:-0.05264 
-1 1:0.805162 2:0.0245136 3:-0.969634 4:0.6946 5:0.0250575 6:-0.940412 7:-0.955997 8:-0.0423489 9:1 
-1 1:0.767401 2:0.643298 3:-0.966445 4:0.956797 5:-0.630603 6:-0.91766 7:-0.917388 8:-0.0512797 9:0.66666 
-1 1:0.553818 2:0.939469 3:-0.893839 4:0.142048 5:-0.0738344 6:-0.936078 7:-0.977857 8:0.742034 9:1 
-1 1:0.938565 2:0.978111 3:-0.947732 4:0.861601 5:-0.436033 6:-0.865385 7:-0.905465 8:0.442523 9:0.82352 
-1 1:0.35745 2:0.478613 3:-0.733222 4:0.419143 5:0.174415 6:-0.950975 7:-0.963662 8:1 9:1 
-1 1:0.0799784 2:0.316167 3:-0.657728 4:0.59702 5:-0.512126 6:-0.897887 7:-0.913698 8:-0.381456 9:1 
-1 1:0.794946 2:0.719966 3:-0.914778 4:0.907486 5:-0.341067 6:-0.738353 7:-0.869695 8:-0.147543 9:0.6 
-1 1:0.856403 2:0.719541 3:-0.987725 4:0.584804 5:-0.637287 6:-0.978332 7:-0.983251 8:-0.163718 9:1 
-1 1:0.893715 2:0.849212 3:-0.991295 4:0.373259 5:-0.403073 6:-0.942849 7:-0.963094 8:0.0926933 9:1 
-1 1:0.873281 2:-0.324043 3:-0.891311 4:0.66257 5:0.264542 6:-0.967226 7:-0.973598 8:-0.0596573 9:1 
-1 1:0.847807 2:-0.0388357 3:-0.875968 4:0.692961 5:-0.881201 6:-0.0774648 7:-0.628389 8:-0.900365 9:-0.5 
-1 1:0.664221 2:0.202401 3:-0.963938 4:0.629497 5:0.0768494 6:-0.869718 7:-0.946629 8:-0.330321 9:1 
-1 1:0.319779 2:0.562616 3:-0.980565 4:0.732142 5:-0.345543 6:-0.9526 7:-0.977005 8:-0.187639 9:1 
-1 1:-0.0525913 2:0.363457 3:-0.936078 4:0.601788 5:0.0646551 6:-0.894366 7:-0.968772 8:-0.426716 9:1 
-1 1:0.542341 2:0.971587 3:-0.391672 4:0.463687 5:0.31807 6:-0.470206 7:-0.46061 8:-0.255766 9:0.11112 
-1 1:-0.285123 2:0.609172 3:-0.867704 4:0.860559 5:0.120187 6:-0.895179 7:-0.967353 8:-0.643163 9:1 
-1 1:-0.8215 2:-0.131254 3:-0.971639 4:0.703836 5:0.204605 6:-0.963434 7:-0.973031 8:-0.325368 9:0.94444 
-1 1:0.190337 2:-0.272776 3:-0.986843 4:0.877095 5:0.383698 6:-0.983749 7:-0.988928 8:-0.563576 9:1 
-1 1:0.268245 2:-0.196302 3:-0.973946 4:0.738696 5:0.391124 6:-0.916847 7:-0.961391 8:-0.654676 9:1 
-1 1:0.751986 2:0.920707 3:-0.48947 4:0.900186 5:-0.496367 6:-0.939328 7:-0.951739 8:-0.223863 9:1 
-1 1:0.12161 2:0.68638 3:-0.882426 4:0.926555 5:-0.196197 6:-0.80065 7:-0.986089 8:-0.68318 9:1 
-1 1:0.585751 2:0.0689083 3:-0.947772 4:0.5273 5:0.0692185 6:-0.752979 7:-0.911143 8:-0.69032 9:0.0625 
-1 1:0.961609 2:0.345815 3:-0.849272 4:0.630987 5:0.302825 6:-0.273564 7:-0.471398 8:-0.705626 9:-0.36842 
-1 1:-0.0502284 2:0.134149 3:-0.948293 4:0.739292 5:0.371813 6:-0.994041 7:-0.997161 8:-0.527537 9:1 
-1 1:0.569458 2:0.290303 3:-0.993722 4:0.78905 5:-0.514147 6:-0.979686 7:-0.980128 8:-0.0704058 9:1 
-1 1:0.602921 2:0.290303 3:-0.994183 4:0.778324 5:-0.687291 6:-0.957746 7:-0.975302 8:0.764664 9:1 
-1 1:0.570808 2:0.744595 3:-0.994023 4:0.604767 5:-0.285402 6:-0.96506 7:-0.973031 8:-0.0766232 9:1 
-1 1:0.543106 2:0.925031 3:-0.852962 4:0.649162 5:0.10919 6:-0.677952 7:-0.78538 8:-0.692954 9:-0.2174 
-1 1:0.25247 2:0.978575 3:-0.418248 4:0.913296 5:-0.39252 6:-0.950704 7:-0.969624 8:-0.149782 9:1 
-1 1:0.69881 2:0.787099 3:-0.865999 4:0.925214 5:-0.171125 6:-0.944475 7:-0.971327 8:-0.243358 9:1 
-1 1:0.894007 2:0.598672 3:-0.950499 4:0.832998 5:-0.456068 6:-0.952329 7:-0.966785 8:-0.270572 9:1 
-1 1:0.518824 2:0.657312 3:-0.993281 4:0.620261 5:-0.351737 6:-0.987541 7:-0.986941 8:-0.527905 9:1 
-1 1:-0.285775 2:0.9729 3:0.615809 4:0.88648 5:-0.856556 6:-0.958017 7:-0.976437 8:-0.905581 9:1 
-1 1:0.898891 2:0.920398 3:-0.974688 4:0.855493 5:-0.120841 6:-0.704767 7:-0.939248 8:-0.280425 9:0.75 
-0.402192574370526 1:0.909737 2:0.976374 3:0.720867 4:0.726331 5:-0.728601 6:-0.981311 7:-0.986657 8:-0.292306 9:1 
-1 1:0.822895 2:0.500386 3:-0.953628 4:0.876648 5:0.0124951 6:-0.773835 7:-0.931583 8:0.559176 9:0.61904 
-1 1:0.83696 2:0.916924 3:-0.966846 4:0.874264 5:-0.37169 6:-0.570152 7:-0.834209 8:-1 9:-0.42858 
-1 1:0.913518 2:0.383956 3:-0.444924 4:0.709944 5:-0.012723 6:-0.789816 7:-0.780837 8:0.183161 9:0.4 
-1 1:0.453721 2:0.986875 3:-0.195575 4:0.863538 5:-0.825121 6:-0.981582 7:-0.985238 8:-0.405851 9:1 
-0.2305212688575931 1:0.695344 2:-0.297097 3:-0.966445 4:0.722458 5:0.417078 6:-0.95558 7:-0.970192 8:0.334352 9:1 
-1 1:0.44562 2:0.465179 3:-0.0405552 4:1 5:-0.00834665 6:-0.570693 7:-0.921079 8:-1 9:-1 
-1 1:0.681527 2:-0.165032 3:-0.972482 4:0.803501 5:-0.016965 6:-0.838028 7:-0.966217 8:-0.0744892 9:1 
-1 1:0.864977 2:0.93611 3:0.431686 4:0.723501 5:-0.749834 6:-0.973185 7:-0.978424 8:-0.454457 9:1 
-1 1:0.984022 2:0.971356 3:-0.357154 4:0.940559 5:-0.439562 6:-0.444204 7:-0.693683 8:-0.625855 9:-0.51352 
-1 1:0.651619 2:-0.116198 3:-0.949196 4:0.53594 5:-0.183793 6:-0.868906 7:-0.860326 8:-0.0924035 9:0.5 
-1 1:0.622747 2:0.73452 3:-0.902303 4:0.780708 5:-0.154286 6:-0.91143 7:-0.889283 8:-0.729073 9:0.68518 
-1 1:0.255125 2:0.17866 3:-0.980184 4:0.124767 5:-0.454251 6:-0.968581 7:-0.989212 8:0.391072 9:1 
-0.1555571340855161 1:0.803655 2:0.877664 3:-0.972562 4:1 5:-0.00834665 6:-0.662243 7:-0.910007 8:-1 9:-1 
-1 1:0.309697 2:0.44414 3:-0.58819 4:0.567821 5:-0.453223 6:-0.985915 7:-0.992903 8:-0.338146 9:1 
-1 1:0.687603 2:0.958887 3:0.608588 4:0.92581 5:-0.824606 6:-0.954496 7:-0.971895 8:-0.528011 9:1 
-1 1:0.799199 2:0.915225 3:-0.194312 4:0.720819 5:-0.435197 6:-0.207476 7:-0.76352 8:-0.78711 9:-0.72222 
-1 1:0.688008 2:0.952401 3:-0.322015 4:0.84879 5:-0.732025 6:-0.975352 7:-0.981831 8:0.00536112 9:1 
-1 1:0.870423 2:0.506177 3:-0.252537 4:0.629348 5:-0.54751 6:-0.978602 7:-0.986089 8:-0.523111 9:1 
-1 1:0.592682 2:0.137276 3:-0.847507 4:0.868752 5:-0.0314204 6:-0.894095 7:-0.970192 8:-0.941805 9:0.5065 
-1 1:0.0910503 2:0.847398 3:-0.294677 4:0.604469 5:-0.662231 6:-0.442579 7:-0.603974 8:-0.498584 9:-0.2549 
-1 1:0.496253 2:0.252046 3:-0.919973 4:0.786667 5:0.170231 6:-0.862676 7:-0.938964 8:-0.710315 9:0.33334 
-1 1:0.918401 2:0.404339 3:-0.564904 4:0.571099 5:-0.030918 6:-0.57909 7:-0.887012 8:-0.77594 9:-0.8 
-1 1:0.522087 2:0.502393 3:-0.957941 4:0.687896 5:-0.541498 6:-0.882449 7:-0.86714 8:-0.0351568 9:0.68628 
-1 1:0.859284 2:0.718731 3:-0.981728 4:0.88216 5:-0.178441 6:-0.789274 7:-0.807239 8:-0.657178 
-1 1:0.546932 2:0.959582 3:-0.973545 4:0.800372 5:-0.377638 6:-0.970477 7:-0.97445 8:0.180315 9:1 
-1 1:0.765106 2:0.718731 3:-0.970195 4:1 5:-0.00834665 6:-0.705038 7:-0.923634 8:-1 9:-1 
-1 1:-0.334744 2:0.718731 3:-0.986201 4:0.887076 5:0.124504 6:-0.90195 7:-0.898084 8:0.173492 9:0.4054 
-1 1:-0.0433423 2:0.928968 3:0.654459 4:0.917169 5:-0.810881 6:-0.946912 7:-0.969056 8:-0.45472 9:1 
-1 1:0.364471 2:0.995985 3:0.511994 4:0.648715 5:-0.734555 6:-0.945829 7:-0.967921 8:-0.424055 9:1 
-1 1:0.225465 2:0.94912 3:-0.512536 4:0.820186 5:-0.681226 6:-0.981582 7:-0.987509 8:0.130603 9:1 
-1 1:0.394919 2:0.987569 3:-0.382286 4:0.72514 5:-0.694034 6:-0.555255 7:-0.649965 8:-0.58394 9:-0.0196 
-1 1:0.0620879 2:0.637546 3:-0.850997 4:0.675978 5:-0.542544 6:-0.982936 7:-0.993187 8:-0.416126 9:1 
-1 1:0.278484 2:0.392217 3:-0.929941 4:0.797095 5:0.191809 6:-0.897616 7:-0.956565 8:-0.830051 9:0.7647 
-1 1:0.84972 2:0.415534 3:-0.849031 4:0.773259 5:-0.331099 6:-0.957476 7:-0.972747 8:-0.46207 9:1 
-1 1:0.997705 2:0.43059 3:-0.970877 4:0.964991 5:-0.711142 6:-0.947725 7:-0.991199 8:0.132869 9:1 
-1 1:0.480208 2:0.785516 3:-0.882346 4:1 5:-0.00834665 6:-0.628386 7:-0.924485 8:-1 9:-1 
-0.7545211947341075 1:0.675406 2:0.542851 3:0.266437 4:0.0435754 5:-0.336282 6:-0.964789 7:-0.992903 8:-0.800624 9:1 
-1 1:0.817832 2:0.719812 3:-0.981247 4:0.510912 5:-0.223946 6:-0.9526 7:-0.967637 8:-0.483489 9:1 
-1 1:0.872854 2:0.513396 3:-0.968571 4:0.890652 5:-0.0835921 6:-0.93987 7:-0.956849 8:0.933217 9:1 
-1 1:-0.355695 2:0.364268 3:-0.936139 4:0.854302 5:0.252301 6:-0.975081 7:-0.980696 8:-0.629912 9:1 
-1 1:0.0559219 2:0.356393 3:-0.955373 4:0.825996 5:0.155303 6:-0.95883 7:-0.977289 8:-0.816984 9:1 
-1 1:0.853613 2:0.136813 3:-0.815015 4:0.849385 5:-0.170968 6:-0.811213 7:-0.874805 8:-0.0326277 9:0.6 
-1 1:0.998177 2:0.406733 3:-0.854045 4:0.827933 5:-0.200439 6:-0.935536 7:-0.945777 8:-0.226471 9:1 
-1 1:0.785674 2:0.0825741 3:-0.810061 4:0.756574 5:-0.256742 6:-0.789274 7:-0.823421 8:-0.0733037 9:0.2258 
-0.5034879905797711 1:-0.0636632 2:0.0558987 3:-0.388062 4:0.719628 5:0.371848 6:-0.961809 7:-0.972747 8:-0.142195 9:1 
-1 1:0.644936 2:0.771194 3:-0.993 4:0.799181 5:-0.295294 6:-0.969393 7:-0.979276 8:-0.609942 9:1 
-1 1:0.677206 2:0.268067 3:-0.928016 4:0.622942 5:0.144248 6:-0.76896 7:-0.934989 8:-0.0962499 9:0.92 
-1 1:0.185724 2:0.941824 3:-0.940371 4:0.715754 5:0.0497615 6:-0.875948 7:-0.958836 8:-0.685788 9:1 
-1 1:0.790175 2:0.164878 3:-0.934594 4:0.467263 5:0.0543774 6:-0.656555 7:-0.783109 8:-0.264644 9:-0.13514 
-1 1:-0.142561 2:0.93557 3:-0.756849 4:0.820782 5:0.528901 6:-0.725894 7:-0.8978 8:0.236166 9:0.63636 
-1 1:0.503454 2:0.271425 3:-0.959525 4:0.40216 5:-0.293418 6:-0.875677 7:-0.982115 8:-0.868462 9:1 
-1 1:-0.351689 2:0.364963 3:-0.977877 4:0.835829 5:0.23538 6:-0.966414 7:-0.975302 8:-0.26338 9:1 
-0.8314454609481988 1:-0.351689 2:0.945993 3:-0.982129 4:0.898994 5:0.367203 6:-0.989437 7:-0.991199 8:-0.366308 9:1 
-1 1:-0.351689 2:0.434605 3:-0.992057 4:0.793222 5:0.0930226 6:-0.873239 7:-0.891838 8:0.203604 9:0.53846 
-1 1:-0.217769 2:0.0330837 3:-0.459525 4:0.66838 5:0.417184 6:-0.966143 7:-0.972747 8:-0.0724871 9:1 
-1 1:1 2:0.108593 3:-0.61605 4:0.748082 5:-0.50838 6:-0.989437 7:-0.990064 8:-0.479669 9:1 
-1 1:0.129577 2:0.82053 3:-0.641361 4:0.822123 5:-0.746439 6:-0.89545 7:-0.908588 8:-0.116509 9:0.79592 
-1 1:-0.400432 2:-0.267912 3:-0.975631 4:0.0763501 5:-0.133532 6:-0.939057 7:-0.946629 8:0.62949 9:0.92308 
-1 1:0.500686 2:0.988303 3:-0.695295 4:0.834935 5:-0.484857 6:-0.816631 7:-0.854365 8:-0.0878723 9:0.125 
-1 1:0.678646 2:0.731779 3:-0.915039 4:0.768492 5:0.171675 6:-0.691224 7:-0.83137 8:-0.69298 9:-0.21952 
-1 1:-0.56822 2:0.0275633 3:-0.945064 4:0.794115 5:0.139854 6:-0.949892 7:-0.976437 8:-0.709024 9:1 
-1 1:0.121273 2:0.389747 3:-0.951342 4:0.811248 5:0.167509 6:-0.97454 7:-0.986089 8:-0.67965 9:1 
-1 1:0.46144 2:0.131794 3:-0.970937 4:0.616089 5:-0.617515 6:-0.852384 7:-0.823705 8:0.1178 9:0.33334 
-1 1:0.0416095 2:0.902563 3:-0.830258 4:0.758659 5:-1 6:-0.957746 7:-0.962243 8:-0.204052 9:0.88 
-1 1:0.173031 2:0.612724 3:-0.970235 4:0.793966 5:-0.442384 6:-0.927952 7:-0.911994 8:0.75215 9:0.73334 
-1 1:0.0230889 2:0.918777 3:0.185768 4:0.690726 5:-0.904205 6:-0.995125 7:-0.990916 8:-0.643874 9:1 
-1 1:0.709994 2:0.80227 3:-0.984817 4:0.644395 5:-0.3188 6:-0.972373 7:-0.978708 8:-0.469052 9:1 
-1 1:0.70259 2:0.88025 3:-0.991115 4:0.692514 5:-0.692018 6:-0.976977 7:-0.984954 8:-0.233031 9:1 
-1 1:0.679614 2:0.473904 3:-0.992559 4:0.560521 5:-0.572729 6:-0.975623 7:-0.988077 8:-0.265013 9:1 
-1 1:0.47915 2:0.959389 3:-0.880501 4:0.88946 5:0.0141779 6:-0.726165 7:-0.837048 8:-0.759448 9:-0.02326 
-1 1:0.0938857 2:0.826475 3:-0.925569 4:0.724097 5:0.16381 6:-0.816089 7:-0.892122 8:0.108447 9:0.36364 
-1 1:0.023854 2:0.39353 3:-0.959064 4:0.623687 5:0.216098 6:-0.922264 7:-0.955429 8:0.584125 9:1 
-1 1:-0.370142 2:0.794472 3:-0.930262 4:0.739292 5:0.186597 6:-0.929307 7:-0.986657 8:-0.59187 9:1 
-1 1:0.886063 2:0.540341 3:-0.645353 4:0.885438 5:-0.287003 6:-0.880823 7:-0.931299 8:-0.183766 9:1 
-1 1:0.671422 2:0.618939 3:-0.896687 4:0.345251 5:0.0562588 6:-0.653575 7:-0.846416 8:-0.720036 9:-0.45946 
-1 1:0.815627 2:0.615967 3:-0.848409 4:0.0879702 5:-0.24165 6:-0.901408 7:-0.907736 8:-0.088689 9:0.4 
