svm_type c_svc
kernel_type rbf
gamma 0.0909091
nr_class 2
total_sv 146
rho 0.399395
label 0 1
probA -1.99346
probB -0.186638
nr_sv 72 74
SV
1 1:-0.122882 2:0.998442 3:-0.60839 4:0.635212 5:-0.999593 6:0.812261 7:-0.365251 8:-0.936333 9:-0.969672 10:-0.354833 11:1 
1 1:0.689824 2:0.677851 3:-0.675707 4:0.377674 5:-0.996235 6:0.537725 7:0.2506 8:-0.94633 9:-0.966611 10:-0.232166 11:1 
1 1:-0.641871 2:0.797339 3:-0.544154 4:0.724043 5:-0.995359 6:0.608753 7:0.0495829 8:-0.848724 9:-0.875904 10:-0.187555 11:0.23076 
1 1:0.737098 2:0.165591 3:-0.655827 4:-0.0523455 5:0.0851711 6:0.865164 7:0.401366 8:-0.836622 9:-0.958542 10:-1 11:-0.5 
1 1:0.676783 2:0.390503 3:-0.32486 4:0.497202 5:-0.924914 6:0.848217 7:-0.603046 8:-0.54512 9:-0.507513 10:-0.240914 11:0.12728 
1 1:0.262483 2:0.965511 3:-0.752351 4:0.796566 5:-0.993181 6:0.30504 7:0.357491 8:-0.958432 9:-0.972732 10:0.0783267 11:1 
1 1:0.355219 2:0.798006 3:-0.775268 4:0.82317 5:-0.995054 6:0.71898 7:-0.219624 8:-0.958958 9:-0.979688 10:-0.6384 11:1 
0.03625113346584669 1:0.423005 2:0.573851 3:-0.226983 4:0.5114 5:-0.970426 6:0.844828 7:-0.571174 8:-0.452512 9:-0.423205 10:-0.341511 11:0.01924 
1 1:0.239933 2:-0.437453 3:-0.787646 4:-0.936687 5:-0.99998 6:0.526083 7:0.476205 8:-0.962378 9:-0.988036 10:0.0946981 11:1 
1 1:-0.412907 2:0.876997 3:-0.707931 4:0.773159 5:-0.972848 6:0.816681 7:-0.123155 8:-0.976322 9:-0.997496 10:-0.834223 11:1 
1 1:-0.0564316 2:0.706778 3:-0.0202487 4:0.477057 5:-0.994301 6:-0.216475 7:0.136943 8:-0.864246 9:-0.890651 10:-0.0888579 11:0.57894 
1 1:-0.236039 2:0.995327 3:1 4:0.502382 5:-1 6:0.731359 7:-0.366466 8:-0.954223 9:-0.968559 10:-0.0404944 11:1 
1 1:-0.0495489 2:0.430466 3:-0.31903 4:0.500208 5:-0.962467 6:0.702034 7:-0.740506 8:-0.983689 9:-0.989149 10:-0.779057 11:1 
1 1:0.193203 2:0.865293 3:-0.0599727 4:0.618137 5:-0.978323 6:-0.100796 7:0.334856 8:-0.935806 9:-0.951308 10:0.0787255 11:0.92 
1 1:-0.544336 2:0.0175337 3:-0.469797 4:-0.264989 5:-0.999593 6:0.804156 7:-0.549324 8:-0.980268 9:-0.981636 10:0.512753 11:1 
0.07567992561396485 1:0.110294 2:0.0288372 3:-0.191547 4:-1 5:-0.99485 6:0.146036 7:-0.759479 8:-0.136543 9:-0.317752 10:-0.630332 11:-0.3 
1 1:0.537725 2:0.660362 3:-0.793673 4:0.650881 5:-0.98219 6:0.617448 7:0.428517 8:-0.940016 9:-0.992209 10:-0.826225 11:1 
1 1:0.66381 2:0.410129 3:-0.823978 4:0.557382 5:-0.967189 6:0.537283 7:0.484471 8:-0.985793 9:-0.993322 10:-0.708693 11:1 
1 1:0.654143 2:0.0706244 3:-0.348437 4:0.593771 5:-0.963343 6:0.905688 7:-0.694574 8:-0.850303 9:-0.760156 10:-0.360767 11:0.80952 
1 1:-0.792499 2:0.956344 3:-0.456835 4:0.772967 5:-0.981315 6:1 7:-0.0159735 8:-0.183899 9:-0.704508 10:-1 11:-1 
1 1:0.607548 2:0.501357 3:-0.717016 4:0.943594 5:0.789133 6:0.366637 7:-0.718923 8:-0.987635 9:-0.993044 10:-0.327954 11:1 
1 1:0.612484 2:0.480931 3:-0.78515 4:0.941547 5:-0.211264 6:0.558503 7:-0.667858 8:-0.848461 9:-0.779633 10:-0.40247 11:0.57984 
1 1:0.436137 2:0.795781 3:-0.806886 4:0.966744 5:-0.0505694 6:0.56926 7:-0.696137 8:-0.85688 9:-0.79271 10:-0.207749 11:0.71014 
1 1:0.856481 2:0.951849 3:-0.388301 4:0.851054 5:-0.959801 6:0.82626 7:-0.100264 8:-0.630887 9:-0.82749 10:-0.917064 11:-0.04762 
1 1:0.730985 2:0.576476 3:-0.4948 4:0.613277 5:-0.983798 6:0.886973 7:-0.667876 8:-0.617732 9:-0.449082 10:-0.371557 11:0.48914 
1 1:0.854014 2:0.800943 3:-0.755361 4:0.929844 5:0.661127 6:0.589891 7:-0.714012 8:-0.715075 9:-0.563996 10:-0.376623 11:0.58096 
1 1:0.604356 2:0.768991 3:-0.725798 4:0.980239 5:-0.521601 6:0.306955 7:-0.536873 8:-0.373323 9:-0.355036 10:-0.271851 
1 1:0.764878 2:0.963108 3:-0.84841 4:0.925943 5:-0.0336349 6:0.531093 7:-0.876368 8:-0.983162 9:-0.990262 10:-0.627447 11:1 
1 1:0.26237 2:0.980063 3:-0.504895 4:0.595562 5:-0.983493 6:0.587238 7:0.243137 8:-0.824783 9:-0.870061 10:-0.0938303 11:0.42858 
1 1:0.771149 2:0.551733 3:-0.503261 4:0.578486 5:-0.959801 6:0.897878 7:-0.736495 8:-0.742699 9:-0.638008 10:-0.00714194 11:0.56376 
1 1:0.553007 2:0.411597 3:-0.313074 4:-0.215617 5:-0.999837 6:0.834365 7:0.414189 8:-0.936333 9:-0.957151 10:-0.413705 11:1 
1 1:0.420039 2:0.527702 3:-0.855993 4:0.933553 5:0.77576 6:0.508252 7:-0.717395 8:-0.980005 9:-0.988314 10:-0.504052 11:1 
1 1:0.892367 2:0.603756 3:-0.611604 4:0.984587 5:0.820722 6:0.753316 7:-0.0453222 8:-0.397527 9:-0.641903 10:-0.649916 11:-0.4468 
1 1:0.548366 2:0.779093 3:-0.803128 4:0.977744 5:0.448876 6:0.617595 7:-0.787962 8:-0.751381 9:-0.628826 10:-0.517796 11:0.5532 
1 1:0.677055 2:0.775221 3:-0.594033 4:0.605155 5:-0.959211 6:0.899794 7:-0.70874 8:-0.787161 9:-0.6931 10:-0.209086 11:0.631 
1 1:0.344533 2:0.953585 3:-0.708802 4:0.775078 5:-0.993568 6:0.128942 7:-0.300288 8:-0.970008 9:-0.981358 10:-0.261812 11:1 
1 1:0.635668 2:0.956032 3:-0.580656 4:0.709462 5:-0.994688 6:0.856764 7:-0.633918 8:-0.774007 9:-0.700612 10:-0.31808 11:0.52942 
1 1:0.51762 2:0.125317 3:-0.151842 4:-0.0549036 5:-0.900836 6:0.844975 7:-0.674682 8:-0.875559 9:-0.837507 10:-0.267676 11:0.79114 
1 1:0.290558 2:0.796182 3:-0.558523 4:0.638026 5:-0.433712 6:0.166519 7:-0.0606679 8:-0.203104 9:-0.589316 10:-1 11:-0.7619 
1 1:0.235654 2:0.986961 3:-0.583615 4:0.894094 5:-0.668821 6:0.783672 7:-0.826082 8:-0.990792 9:-0.99527 10:-0.835466 11:1 
1 1:0.475509 2:0.829024 3:-0.862944 4:0.414831 5:-0.987136 6:0.421014 7:0.112657 8:-0.968166 9:-0.984697 10:-0.293992 11:1 
1 1:-0.394885 2:0.658493 3:-0.565167 4:0.756787 5:-0.202858 6:0.48379 7:0.0301915 8:-0.0497238 9:-0.362549 10:-0.724783 11:-0.65384 
1 1:-0.553551 2:0.782831 3:-0.558647 4:0.635532 5:-0.145439 6:0.427203 7:-0.712698 8:-0.984215 9:-0.991653 10:-0.418489 11:1 
1 1:0.0586051 2:0.752926 3:-0.794601 4:0.701212 5:-0.99369 6:0.35249 7:0.453437 8:-0.969745 9:-0.986366 10:-0.842479 11:1 
1 1:0.519228 2:0.69187 3:-0.70706 4:0.911041 5:-0.294471 6:0.593575 7:-0.727032 8:-0.712181 9:-0.590985 10:-0.423907 11:0.456 
1 1:-0.0607107 2:0.641538 3:-0.690824 4:0.848943 5:0.0839499 6:0.488211 7:0.103305 8:-0.121547 9:-0.373957 10:-0.777204 11:-0.4762 
1 1:-0.238983 2:0.97726 3:-0.509839 4:0.979727 5:-0.998697 6:0.923519 7:-0.513256 8:-0.965535 9:-0.980801 10:-0.170222 11:1 
1 1:0.352933 2:0.993814 3:-0.581725 4:0.997954 5:-0.999959 6:0.907604 7:-0.293644 8:-0.970534 9:-0.971063 10:0.875339 11:1 
1 1:-0.0707405 2:0.440523 3:-0.319922 4:0.661177 5:-0.963281 6:1 7:-0.0159735 8:-0.553012 9:-0.911797 10:-1 11:-1 
1 1:0.373196 2:0.782253 3:-0.733602 4:0.819077 5:-0.988887 6:0.489832 7:0.56156 8:-0.97448 9:-0.98581 10:-0.00404592 11:1 
1 1:0.655365 2:0.783009 3:-0.785026 4:0.861158 5:-0.955058 6:0.686855 7:-0.0351614 8:-0.811365 9:-0.897051 10:-0.973801 11:-0.26316 
1 1:0.899589 2:0.548618 3:-0.830385 4:0.884885 5:-0.935702 6:0.670498 7:0.0268608 8:-0.792686 9:-0.834446 10:0.0383366 11:0.36842 
1 1:0.561633 2:-0.087001 3:-0.395631 4:0.409587 5:-0.991533 6:0.500147 7:-0.329334 8:-0.797685 9:-0.818308 10:-0.5811 11:0.06666 
1 1:0.47012 2:-0.586756 3:-0.545342 4:-0.940588 5:-0.999898 6:0.704686 7:0.17833 8:-0.900552 9:-0.900668 10:0.403783 11:0.66666 
1 1:-0.021384 2:0.32602 3:0.263525 4:0.449877 5:-0.998127 6:0.673593 7:-0.116918 8:-0.795054 9:-0.890929 10:-0.772514 11:0.56364 
1 1:0.735219 2:0.493837 3:-0.282313 4:0.704474 5:-0.997822 6:0.902004 7:-0.418705 8:-0.779006 9:-0.786867 10:-0.534261 11:0.17648 
1 1:0.860217 2:-0.546304 3:-0.754379 4:0.185943 5:-0.999512 6:0.917035 7:-0.353446 8:-0.877664 9:-0.920145 10:-0.558748 11:0.38462 
1 1:0.834248 2:0.61408 3:-0.464168 4:0.743165 5:-0.942683 6:0.797377 7:-0.751475 8:-0.629834 9:-0.565943 10:-0.379461 11:0.2489 
1 1:-0.392123 2:0.236483 3:-0.362167 4:0.373005 5:-0.945166 6:0.709402 7:-0.70624 8:-0.957643 9:-0.961046 10:-0.0809537 11:0.9387 
1 1:0.337673 2:0.0114815 3:-0.676712 4:-0.218751 5:-0.999756 6:0.544651 7:0.286953 8:-0.922652 9:-0.941291 10:0.176813 11:1 
1 1:0.376162 2:0.17645 3:-0.63554 4:-0.101973 5:-0.999552 6:0.623932 7:0.168966 8:-0.954749 9:-0.972176 10:-0.267043 11:1 
1 1:-0.61305 2:0.189711 3:-0.709238 4:0.319093 5:-0.999959 6:0.654436 7:0.820589 8:-0.969482 9:-0.975515 10:-0.0477654 11:1 
1 1:-0.334888 2:0.648881 3:-0.188769 4:0.795095 5:-0.995074 6:0.850722 7:-0.0818903 8:-0.764009 9:-0.846132 10:-0.89361 11:0.26666 
1 1:0.806174 2:0.680878 3:-0.479526 4:0.855019 5:-0.898332 6:0.815355 7:-0.691272 8:-0.944225 9:-0.943517 10:-0.188775 11:0.83632 
1 1:0.752176 2:-0.18713 3:-0.586426 4:0.382279 5:-0.999593 6:0.691424 7:-0.395925 8:-0.872402 9:-0.85281 10:-0.14332 11:0.51352 
1 1:0.460973 2:0.283254 3:-0.653902 4:0.566143 5:-0.997802 6:0.896846 7:-0.534723 8:-0.917127 9:-0.920145 10:-0.375403 11:0.53192 
1 1:0.745588 2:0.668996 3:-0.440948 4:0.848815 5:-0.904642 6:0.795019 7:-0.629657 8:-0.930545 9:-0.920145 10:-0.17299 11:0.82386 
1 1:0.753059 2:0.0100129 3:-0.751337 4:0.885844 5:-0.999654 6:0.923519 7:-0.378208 8:-0.91055 9:-0.903172 10:-0.22595 11:0.46666 
1 1:0.66381 2:0.888211 3:-0.779906 4:0.694369 5:-0.951761 6:0.835249 7:-0.527503 8:-0.932649 9:-0.913467 10:-0.656695 11:0.63636 
1 1:-0.665078 2:0.788527 3:-0.253198 4:0.849327 5:-0.0296455 6:-0.113911 7:1 8:-0.982636 9:-0.991653 10:-0.378663 11:1 
1 1:-0.326986 2:0.289662 3:-0.58267 4:0.653247 5:-0.843804 6:0.0937224 7:0.468009 8:-0.938963 9:-0.928492 10:0.343059 11:0.5 
0.2893611747043587 1:-0.468377 2:0.548618 3:-0.269851 4:0.462859 5:-0.952555 6:0.784999 7:-0.719795 8:-0.961589 9:-0.983306 10:-0.164288 11:1 
-1 1:-0.315259 2:0.846647 3:-0.687205 4:0.79113 5:-0.992367 6:0.75361 7:0.292202 8:-0.976322 9:-0.992766 10:-0.624538 11:1 
-0.2354760045886412 1:-0.27317 2:0.771839 3:-0.562226 4:-0.057078 5:-0.981905 6:0.379016 7:0.511384 8:-0.964483 9:-0.980245 10:-0.654115 11:0.84616 
-1 1:0.363075 2:-1 3:-0.860169 4:-0.362133 5:-0.96951 6:0.00368406 7:0.290354 8:-0.980531 9:-0.996105 10:-0.776665 11:1 
-1 1:-0.327552 2:0.79369 3:-0.809784 4:0.861798 5:-0.987177 6:0.647952 7:0.436039 8:-0.932123 9:-0.940735 10:-0.0418079 11:0.82352 
-1 1:-0.480308 2:0.841885 3:-0.0155423 4:0.772519 5:-0.994199 6:0.290598 7:0.313977 8:-0.947382 9:-0.983306 10:-0.208312 11:1 
-0.9727432664532361 1:-0.459524 2:0.366428 3:-0.539415 4:0.241838 5:-0.985264 6:-0.353817 7:0.359433 8:-0.97106 9:-0.975515 10:-0.0285091 11:1 
-1 1:-0.0830116 2:0.982021 3:-0.698774 4:0.92671 5:0.566909 6:0.67374 7:0.212829 8:-0.909234 9:-0.985531 10:0.697764 11:1 
-1 1:0.017671 2:0.141605 3:-0.205723 4:0.163879 5:-0.96322 6:0.354996 7:0.294295 8:-0.975007 9:-0.982471 10:-0.351339 11:1 
-1 1:0.546441 2:0.928263 3:-0.913022 4:0.955681 5:-0.691373 6:0.744179 7:-0.0015927 8:-0.88582 9:-0.9399 10:-0.957875 11:-0.25316 
-1 1:-0.654663 2:0.123626 3:-0.20825 4:-0.282064 5:-0.952127 6:0.718686 7:0.29648 8:-0.986846 9:-0.995826 10:-0.304852 11:1 
-1 1:0.663923 2:-0.270571 3:-0.766178 4:0.786397 5:-0.982699 6:0.67654 7:-0.100543 8:-0.881873 9:-0.88926 10:-0.778987 11:0.11628 
-1 1:-0.166238 2:0.195318 3:-0.119816 4:0.0926998 5:-0.682621 6:0.760094 7:0.404342 8:-0.986056 9:-0.998609 10:-0.910403 11:1 
-1 1:-0.46532 2:0.872369 3:-0.631656 4:0.820868 5:-0.978547 6:0.524462 7:0.409864 8:-0.92423 9:-0.945465 10:-0.304101 11:0.81818 
-1 1:0.526178 2:0.555917 3:-0.57711 4:0.69795 5:-0.966436 6:0.608164 7:0.166181 8:-0.901342 9:-0.940178 10:-0.180425 11:0.71428 
-1 1:0.467811 2:0.979752 3:-0.476273 4:0.719886 5:-0.993853 6:0.0767757 7:0.0902549 8:-0.920021 9:-0.95882 10:0.469034 11:1 
-1 1:-0.433533 2:0.481554 3:-0.781837 4:0.8916 5:-0.980623 6:0.612143 7:0.402918 8:-0.93528 9:-0.95882 10:-0.231697 11:0.9091 
-1 1:0.0270894 2:0.102755 3:-0.513057 4:0.576951 5:-0.846083 6:0.181845 7:0.00192984 8:-0.917916 9:-0.928214 10:-0.888778 11:0.5 
-1 1:0.354698 2:0.860131 3:-0.91391 4:0.911297 5:-0.796542 6:0.291335 7:0.0110675 8:-0.904236 9:-0.906789 10:-0.969228 11:0.33334 
-1 1:0.37906 2:0.426283 3:0.431137 4:0.624085 5:-0.906942 6:0.92514 7:-0.00973639 8:-0.696396 9:-0.892877 10:-1 11:-0.83334 
-0.6089476534129297 1:0.458619 2:0.885586 3:-0.772793 4:0.552393 5:-0.904113 6:0.0557029 7:0.107536 8:-0.765588 9:-0.866444 10:-1 11:-0.33334 
-1 1:0.645992 2:0.897601 3:-0.514525 4:0.973523 5:0.857319 6:0.690245 7:0.130578 8:-0.937648 9:-0.993879 10:-0.806875 11:1 
-1 1:0.553098 2:0.805928 3:-0.712361 4:0.748217 5:0.00283938 6:0.567639 7:0.0987415 8:-0.90371 9:-0.973845 10:-0.703182 11:1 
-1 1:0.578455 2:0.736015 3:-0.765438 4:0.681962 5:-0.580709 6:0.256852 7:0.00223792 8:-0.936859 9:-0.987479 10:-0.991228 11:0.77778 
-1 1:0.4516 2:0.766989 3:-0.725015 4:0.917053 5:-0.60379 6:0.708518 7:-0.00699276 8:-0.930018 9:-0.989427 10:-0.965662 11:1 
-1 1:-0.302625 2:0.242401 3:-0.73185 4:0.672049 5:-0.940119 6:0.327734 7:0.235039 8:-0.960274 9:-0.976071 10:-0.6145 11:1 
-1 1:0.828996 2:0.979574 3:-0.883468 4:0.997058 5:-0.306581 6:0.713675 7:-0.00591159 8:-0.970534 9:-0.98414 10:-0.882539 11:1 
-1 1:0.439646 2:0.854301 3:-0.744554 4:0.858984 5:-0.974293 6:0.456233 7:-0.165315 8:-0.938174 9:-0.955481 10:-0.00505447 11:0.9 
-1 1:0.312496 2:0.801922 3:-0.599231 4:0.548876 5:-0.985996 6:0.797524 7:0.294597 8:-0.960011 9:-0.979132 10:-0.24713 11:1 
-1 1:-0.0648313 2:0.320947 3:-0.801679 4:0.709654 5:-0.974089 6:0.348659 7:0.229634 8:-0.956327 9:-0.967168 10:-0.201534 11:1 
-1 1:0.567271 2:-0.0507321 3:-0.0684589 4:-0.361686 5:-0.981987 6:0.605806 7:0.270282 8:-0.976585 9:-0.988592 10:-0.735268 11:1 
-0.2359188209154241 1:0.71817 2:-0.0546482 3:-0.783623 4:0.867426 5:-0.353273 6:0.457707 7:0.0254192 8:-0.992107 9:-0.996661 10:-0.973637 11:1 
-1 1:0.920034 2:0.909038 3:-0.799525 4:0.891344 5:-0.868147 6:0.741232 7:-0.0668469 8:-0.799526 9:-0.923205 10:-0.974364 11:-0.66154 
-1 1:0.853629 2:0.435183 3:-0.854767 4:0.915966 5:-0.803869 6:0.901709 7:-0.00132531 8:-0.88161 9:-0.918753 10:-0.919832 11:-0.18812 
-1 1:0.882767 2:0.967024 3:-0.611695 4:0.771049 5:-0.877327 6:0.897583 7:-0.105572 8:-0.802947 9:-0.902894 10:-0.953701 11:-0.41464 
-1 1:0.805653 2:0.603622 3:-0.676245 4:0.924791 5:-0.989681 6:0.939581 7:-0.643631 8:-0.943173 9:-0.925153 10:-0.160277 11:0.68422 
-1 1:0.857047 2:0.664145 3:-0.631023 4:0.630928 5:-0.988419 6:0.615532 7:-0.634621 8:-0.983689 9:-0.990262 10:-0.251539 11:1 
-1 1:0.898932 2:0.680477 3:-0.536571 4:0.637131 5:-0.992978 6:0.394047 7:-0.365449 8:-0.956853 9:-0.967446 10:-0.173177 11:1 
-0.6330427104627636 1:0.79499 2:0.732277 3:-0.627991 4:0.972628 5:-0.110471 6:0.0870911 7:0.345651 8:0.384109 9:-0.442404 10:-0.891171 11:-0.89248 
-1 1:0.596205 2:0.0801922 3:-0.527962 4:0.591597 5:-0.968757 6:0.616416 7:0.177975 8:-0.990266 9:-0.994157 10:-0.0195729 11:1 
-0.145399118478226 1:0.481486 2:0.668551 3:-0.0310115 4:0.862054 5:-0.91775 6:0.409225 7:0.272735 8:-0.880821 9:-0.894546 10:0.0659662 11:0.46666 
-1 1:0.879348 2:0.836367 3:-0.519432 4:0.948198 5:-0.906596 6:0.582228 7:0.299201 8:-0.0881347 9:-0.249026 10:-0.567708 11:-0.2174 
-1 1:0.310278 2:0.528548 3:-0.775597 4:0.838007 5:-0.982435 6:0.786325 7:-0.33728 8:-0.966851 9:-0.980801 10:-0.25372 11:1 
-1 1:-0.841199 2:0.271461 3:-0.640571 4:0.861606 5:-0.979768 6:0.745358 7:0.184794 8:-0.9608 9:-0.97468 10:-0.3394 11:0.92308 
-1 1:0.841425 2:-0.162343 3:-0.81085 4:0.748089 5:-0.972013 6:0.531536 7:0.156491 8:-0.418311 9:-0.498887 10:-0.527764 11:-0.21212 
-1 1:0.603315 2:0.182413 3:-0.727476 4:0.467592 5:-0.994504 6:0.782788 7:-0.577476 8:-0.959221 9:-0.979967 10:1 11:1 
-1 1:0.46978 2:0.691914 3:0.104261 4:0.394302 5:-0.99424 6:0.642941 7:-0.582783 8:-0.974743 9:-0.972454 10:0.245652 11:0.91666 
-1 1:0.523507 2:0.947755 3:-0.681108 4:0.957535 5:-0.273852 6:0.776894 7:-0.767379 8:-0.997106 9:-0.989149 10:-0.50241 11:1 
-1 1:0.260446 2:0.793378 3:-0.501185 4:0.957791 5:-0.637028 6:0.510315 7:-0.459116 8:-0.367798 9:-0.414858 10:-0.38645 11:-0.11112 
-1 1:0.924064 2:0.292822 3:-0.722335 4:0.764206 5:-0.900428 6:0.667551 7:0.0257099 8:-0.870034 9:-0.816639 10:0.287566 11:0.6 
-1 1:0.541438 2:0.305282 3:-0.0232404 4:0.159595 5:-0.989782 6:1 7:-0.0159735 8:-0.510392 9:-0.953812 10:-1 11:-1 
-1 1:0.819102 2:0.972943 3:-0.975492 4:1 5:-0.334935 6:0.803714 7:-0.790769 8:-0.97527 9:-0.986088 10:-0.338462 11:1 
-0.1990850133144512 1:0.970862 2:0.873036 3:-0.962108 4:0.965593 5:-0.382196 6:0.789714 7:-0.015555 8:-0.787951 9:-0.88759 10:-0.997678 11:-0.43272 
-1 1:0.162842 2:-0.176183 3:-0.129816 4:-0.891856 5:-0.98679 6:0.120248 7:-0.360863 8:-0.970008 9:-0.984975 10:0.279216 11:1 
-1 1:0.940342 2:0.900627 3:-0.749124 4:0.959646 5:-0.703036 6:0.696876 7:-0.823885 8:-0.505393 9:-0.567056 10:-0.567262 11:-0.18888 
-1 1:0.78136 2:0.613057 3:-0.3825 4:0.676078 5:0.455389 6:0.815945 7:0.316831 8:-0.716127 9:-0.864218 10:-0.61328 11:-0.54676 
-1 1:0.413632 2:0.957011 3:-0.770952 4:0.931698 5:-0.696482 6:0.698644 7:-0.449536 8:-0.529334 9:-0.570117 10:-0.241336 11:-0.057 
-1 1:0.525408 2:0.324952 3:0.247228 4:-0.544655 5:-0.962142 6:0.659151 7:-0.604197 8:-0.893449 9:-0.887034 10:-0.0994359 11:0.72414 
-1 1:0.498942 2:0.841841 3:-0.19903 4:-0.0505548 5:-0.980786 6:0.806366 7:-0.464185 8:-0.981321 9:-0.987201 10:-0.153452 11:1 
-1 1:0.919603 2:0.734369 3:-0.693985 4:0.916158 5:-0.988866 6:0.899941 7:-0.026512 8:-0.827414 9:-0.890373 10:-0.974036 11:-0.38462 
-1 1:0.269796 2:0.990165 3:-0.96227 4:0.995331 5:-0.29616 6:0.753905 7:-0.808283 8:-0.969482 9:-0.983862 10:-0.445181 11:1 
-1 1:0.685839 2:0.483156 3:-0.26431 4:0.860391 5:0.0421632 6:-0.241085 7:-0.356794 8:-0.957643 9:-0.996661 10:-0.817453 11:1 
-1 1:0.8268 2:0.884918 3:-0.0133988 4:0.811659 5:-0.98909 6:0.603301 7:-0.242137 8:-0.964483 9:-0.984697 10:-0.00273246 11:1 
-1 1:0.437676 2:0.559966 3:-0.863221 4:0.807694 5:-0.975148 6:0.777188 7:0.209818 8:-0.97448 9:-0.980801 10:0.410233 11:1 
-1 1:0.217248 2:0.164034 3:-0.162783 4:0.840054 5:-0.706028 6:0.714707 7:0.266765 8:-0.962904 9:-0.978575 10:0.162576 11:1 
-1 1:0.428439 2:0.726759 3:-0.758922 4:0.627154 5:-0.431657 6:0.858238 7:0.132566 8:-0.887924 9:-0.997218 10:-1 11:1 
-1 1:-0.345257 2:0.39887 3:-0.732095 4:0.850478 5:-0.993019 6:0.783083 7:0.138768 8:-0.868719 9:-0.892321 10:0.0237009 11:0.36 
-0.510751424459045 1:-0.324428 2:0.821726 3:-0.468159 4:0.894158 5:0.803035 6:0.82847 7:0.588002 8:-0.972902 9:-0.986923 10:0.0997643 11:1 
-1 1:0.0272706 2:0.904766 3:-0.348092 4:0.257123 5:-0.825648 6:0.782935 7:-1 8:-0.96422 9:-0.968002 10:-0.294062 11:0.88 
-1 1:0.172329 2:0.596369 3:-0.578117 4:0.188501 5:-0.972176 6:0.784262 7:-0.497992 8:-0.930282 9:-0.913467 10:0.425643 11:0.71428 
-1 1:0.483659 2:0.966446 3:-0.0568296 4:0.682538 5:-0.852861 6:0.804303 7:-0.712727 8:-0.916338 9:-0.891764 10:0.0373046 11:0.67816 
-0.8599282216994533 1:0.439872 2:0.547951 3:-0.753026 4:0.510504 5:-0.980786 6:0.733864 7:0.398628 8:-0.656406 9:-0.586255 10:-0.998382 11:0.2 
-1 1:0.734041 2:0.501135 3:-0.843193 4:0.660282 5:-0.672077 6:0.794724 7:0.084198 8:-0.868456 9:-0.895938 10:-0.0634096 11:0.4 
-1 1:0.669697 2:0.892261 3:-0.440563 4:0.856362 5:0.175746 6:0.643236 7:0.140367 8:0.692186 9:-0.54424 10:-0.999883 11:-0.9452 
-1 1:0.50682 2:-0.03707 3:-0.0966411 4:-0.222396 5:-0.947283 6:0.0978485 7:-0.311913 8:-0.907393 9:-0.894268 10:-0.146908 11:0.4 
