svm_type c_svc
kernel_type rbf
gamma 0.0909091
nr_class 2
total_sv 156
rho -0.0491391
label 0 1
probA -2.22754
probB -0.105165
nr_sv 76 80
SV
1 1:-0.115289 2:1 3:-0.551019 4:0.77245 5:-0.999431 6:0.838659 7:-0.49227 8:-0.975249 9:-0.976386 10:-0.601373 11:1 
1 1:-0.670141 2:0.778366 3:-0.494284 4:0.822716 5:-0.994697 6:0.565438 7:0.104983 8:-0.877858 9:-0.878872 10:-0.78389 11:0.23076 
1 1:0.681217 2:0.48735 3:-0.243309 4:0.696972 5:-0.925103 6:0.819143 7:-0.496728 8:-0.599139 9:-0.512988 10:-0.389635 11:0.21638 
1 1:0.314663 2:0.958318 3:-0.720561 4:0.865659 5:-0.992949 6:0.241564 7:0.412593 8:-0.974711 9:-0.976663 10:-0.0440523 11:1 
1 1:0.514982 2:0.922419 3:-0.742941 4:0.901779 5:-0.99364 6:0.614153 7:-0.211972 8:-0.971482 9:-0.947771 10:-0.143746 11:0.88888 
1 1:0.453972 2:0.671535 3:-0.586888 4:0.795694 5:-0.981773 6:0.748082 7:-0.431576 8:-0.784773 9:-0.776636 10:-0.743344 11:0.20754 
1 1:0.073437 2:0.252905 3:-0.290835 4:0.21111 5:-0.990247 6:0.643948 7:-0.488981 8:-0.997848 9:-0.996111 10:-0.612903 11:1 
1 1:0.349715 2:0.535154 3:-0.32353 4:0.401731 5:-0.984943 6:-0.547114 7:0.38988 8:-0.952381 9:-0.962217 10:-0.0918453 11:0.81818 
1 1:0.252932 2:-0.253623 3:-0.766959 4:-0.186516 5:-0.999919 6:0.592402 7:0.3924 8:-0.983051 9:-0.976108 10:-0.0473089 11:1 
1 1:-0.0924379 2:0.837808 3:-0.023502 4:0.736407 5:-0.993742 6:-0.229795 7:0.196858 8:-0.898036 9:-0.88804 10:-0.386407 11:0.57894 
1 1:-0.231658 2:0.997279 3:0.982579 4:0.702754 5:-0.999939 6:0.718436 7:-0.383349 8:-0.987893 9:-0.982775 10:0.220349 11:1 
0.7591543424378228 1:-0.0692722 2:0.51898 3:-0.233516 4:0.694968 5:-0.957898 6:0.557244 7:-1 8:-0.97767 9:-0.973052 10:-0.940648 11:1 
1 1:-0.479052 2:0.99573 3:1 4:0.798315 5:-1 6:0.806182 7:-0.36599 8:-0.99435 9:-0.990832 10:0.0913465 11:1 
1 1:-0.0495734 2:0.600756 3:-0.685687 4:0.695738 5:-0.992441 6:0.711285 7:-0.581732 8:-0.991391 9:-0.98722 10:-0.578988 11:1 
1 1:0.225669 2:0.319754 3:-0.730111 4:0.77827 5:-0.974479 6:0.623687 7:-0.233294 8:-0.941082 9:-0.945826 10:-0.490854 11:0.61904 
1 1:-0.557914 2:0.384639 3:-0.613064 4:0.635025 5:-0.958447 6:0.71784 7:-0.307804 8:-0.990853 9:-0.985276 10:-0.809121 11:1 
0.4571324613550467 1:-0.806749 2:0.886027 3:-0.290931 4:0.608311 5:-0.998943 6:0.945624 7:-0.236242 8:-0.789884 9:-0.754966 10:-0.464742 11:0.18518 
1 1:0.615007 2:0.572943 3:-0.685669 4:0.969046 5:0.83208 6:0.376983 7:-0.807674 8:-0.990853 9:-0.985276 10:0.164694 11:1 
1 1:0.581013 2:0.547511 3:-0.770696 4:0.967234 5:-0.175235 6:0.539218 7:-0.633308 8:-0.841539 9:-0.760522 10:0.0844519 11:0.5935 
1 1:0.869695 2:0.944865 3:-0.35155 4:0.904709 5:-0.954322 6:1 7:-0.0399118 8:-0.488835 9:-0.891652 10:-1 11:-1 
1 1:0.4415 2:0.794539 3:-0.759012 4:0.981497 5:0.00440931 6:0.564246 7:-0.813422 8:-0.859833 9:-0.776636 10:0.398055 11:0.71014 
1 1:0.570814 2:0.591497 3:-0.250562 4:0.734364 5:-0.949262 6:0.903613 7:-0.515264 8:-0.722357 9:-0.584942 10:-0.119717 11:0.46478 
1 1:0.591706 2:0.498573 3:-0.696221 4:0.884818 5:-0.985715 6:0.719628 7:0.264817 8:-0.91929 9:-0.922211 10:-0.3752 11:0.6 
1 1:0.608186 2:0.473444 3:-0.345256 4:0.74562 5:-0.938615 6:0.902868 7:-0.493486 8:-0.723433 9:-0.599944 10:-0.181651 11:0.42658 
1 1:0.854589 2:0.830402 3:-0.726052 4:0.957327 5:0.657313 6:0.58987 7:-0.638448 8:-0.715093 9:-0.557161 10:0.165603 11:0.58096 
1 1:0.605079 2:0.770846 3:-0.690797 4:0.985621 5:-0.534177 6:0.315009 7:-0.302443 8:-0.358084 9:-0.331852 10:-0.939005 
1 1:0.65553 2:0.664582 3:-0.0437954 4:0.745813 5:-0.948978 6:0.893631 7:-0.524648 8:-0.742803 9:-0.608557 10:-0.114876 11:0.49286 
1 1:0.228281 2:0.999735 3:-0.456397 4:0.725498 5:-0.984476 6:0.547858 7:0.208115 8:-0.874092 9:-0.862759 10:-0.480497 11:0.36842 
1 1:0.768613 2:0.970524 3:-0.825657 4:0.955477 5:-0.0270045 6:0.438063 7:-0.723171 8:-0.993005 9:-0.987498 10:-0.624844 11:1 
1 1:0.770639 2:0.612055 3:-0.442178 4:0.7472 5:-0.959036 6:0.896313 7:-0.593757 8:-0.761905 9:-0.630782 10:-0.0477196 11:0.56376 
1 1:0.575092 2:0.522872 3:-0.225425 4:0.291907 5:-0.999776 6:0.8473 7:0.268139 8:-0.968792 9:-0.956105 10:0.281609 11:1 
1 1:0.426169 2:0.599055 3:-0.836853 4:0.958792 5:0.756289 6:0.498696 7:-0.81895 8:-0.985203 9:-0.979997 10:-0.0317886 11:1 
1 1:0.893762 2:0.662919 3:-0.564021 4:0.990941 5:0.827122 6:0.766406 7:-0.243274 8:-0.388485 9:-0.603834 10:-0.44884 11:-0.41666 
1 1:0.548211 2:0.820047 3:-0.778157 4:0.986701 5:0.445646 6:0.605959 7:-0.524541 8:-0.763519 9:-0.631893 10:0.152313 11:0.53926 
1 1:0.686598 2:0.806254 3:-0.542987 4:0.759883 5:-0.959056 6:0.900931 7:-0.576679 8:-0.765402 9:-0.632171 10:-0.105957 11:0.57858 
1 1:0.713771 2:0.69693 3:-0.57241 4:0.850124 5:0.317105 6:0.654674 7:-0.602279 8:-0.786925 9:-0.659397 10:0.0951312 11:0.58192 
1 1:0.444675 2:0.929712 3:-0.680555 4:0.85529 5:-0.99234 6:0.294153 7:-0.428482 8:-0.979284 9:-0.975274 10:-0.191128 11:1 
1 1:-0.101781 2:0.676523 3:-0.352011 4:0.227801 5:-0.992522 6:0.769683 7:-0.444985 8:-0.994888 9:-0.990832 10:-0.308073 11:1 
1 1:-0.396632 2:0.718961 3:-0.511354 4:0.852399 5:-0.200045 6:0.478138 7:0.0925236 8:-0.0134517 9:-0.345465 10:-0.687952 11:-0.65384 
1 1:-0.538666 2:0.815966 3:-0.504238 4:0.783012 5:-0.151583 6:0.404842 7:-0.788964 8:-0.987086 9:-0.983053 10:0.022899 11:1 
1 1:0.631914 2:0.963873 3:-0.531519 4:0.825955 5:-0.994636 6:0.843277 7:-0.616002 8:-0.79392 9:-0.704681 10:0.0274465 11:0.52942 
1 1:0.295999 2:0.832858 3:-0.512223 4:0.791068 5:-0.428679 6:0.303687 7:0.0276528 8:-0.202583 9:-0.54077 10:-0.914067 11:-0.64444 
1 1:0.24028 2:0.996032 3:-0.538491 4:0.939055 5:-0.66733 6:0.766555 7:-0.914248 8:-0.993005 9:-0.989443 10:-0.30643 11:1 
1 1:0.22281 2:0.865621 3:-0.772525 4:0.885589 5:-0.98661 6:0.558883 7:-0.412787 8:-0.980361 9:-0.981664 10:0.745251 11:1 
1 1:0.53324 2:0.729655 3:-0.667958 4:0.946379 5:-0.295973 6:0.609832 7:-0.568791 8:-0.652139 9:-0.502431 10:0.284308 11:0.40158 
1 1:-0.0514194 2:0.703694 3:-0.656807 4:0.910992 5:0.080282 6:0.340782 7:0.0849704 8:-0.0661824 9:-0.359633 10:-0.764292 11:-0.5122 
1 1:-0.236295 2:0.98341 3:-0.458802 4:0.989014 5:-0.998537 6:0.921937 7:-0.423355 8:-0.992736 9:-0.987776 10:-0.249835 11:1 
1 1:0.492177 2:0.995957 3:-0.528851 4:0.998805 5:-0.999837 6:0.909721 7:-0.277812 8:-0.994888 9:-0.99111 10:0.558597 11:1 
1 1:0.0259123 2:0.932282 3:-0.432961 4:0.0441185 5:-0.99555 6:0.625624 7:0.0130945 8:-0.963411 9:-0.961939 10:0.453476 11:0.72728 
1 1:-0.109773 2:0.279924 3:-0.0820386 4:0.70314 5:-0.987341 6:0.875754 7:-0.0955784 8:-0.442561 9:-0.402139 10:-0.912952 
1 1:0.292938 2:0.770694 3:-0.333884 4:0.747432 5:-0.913439 6:0.89095 7:-0.358925 8:-0.305354 9:-0.393249 10:-0.953967 11:-0.22222 
1 1:0.852473 2:0.888257 3:-0.793555 4:0.952162 5:-0.939651 6:0.693855 7:0.197534 8:-0.810062 9:-0.81803 10:-0.696226 11:0.29412 
1 1:0.550395 2:0.385583 3:0.595286 4:0.831891 5:-0.899439 6:0.145326 7:0.0472979 8:-0.929782 9:-0.918044 10:-0.108832 11:0.71428 
1 1:-0.454535 2:-0.0646386 3:-0.364425 4:0.384114 5:-0.967692 6:0.453855 7:-0.452492 8:-0.97767 9:-0.973052 10:-0.424196 11:0.95122 
1 1:0.650532 2:0.604459 3:0.0208544 4:0.697589 5:-0.983643 6:0.820633 7:-0.133284 8:-0.291095 9:-0.241561 10:-0.921665 11:0.00814 
1 1:0.442648 2:-0.277128 3:-0.492393 4:-0.172985 5:-0.999878 6:0.688641 7:0.279957 8:-0.881894 9:-0.880539 10:0.340932 11:0.66666 
1 1:0.830726 2:0.678866 3:-0.400623 4:0.845614 5:-0.94272 6:0.812588 7:-0.411564 8:-0.613667 9:-0.565495 10:-0.579633 11:0.09734 
1 1:0.428668 2:-0.0445725 3:0.0752462 4:-0.0779639 5:-0.999228 6:0.73959 7:0.121674 8:-0.97202 9:-0.961384 10:0.0755035 11:1 
1 1:0.416151 2:0.317185 3:-0.602362 4:0.343022 5:-0.999573 6:0.596872 7:0.0403061 8:-0.963411 9:-0.949437 10:0.335886 11:1 
1 1:0.112024 2:0.190213 3:-0.0642337 4:-0.175915 5:-0.999025 6:0.741676 7:0.568885 8:-0.954802 9:-0.953327 10:0.530666 11:1 
1 1:-0.644567 2:0.412074 3:-0.670189 4:0.609198 5:-0.999919 6:0.710242 7:0.755403 8:-1 9:-1 10:0.484927 11:1 
1 1:0.388302 2:0.316164 3:-0.561016 4:0.303471 5:-0.99935 6:0.5927 7:0.0544835 8:-0.982244 9:-0.971385 10:-0.24872 11:1 
1 1:0.949301 2:0.0526216 3:-0.640597 4:0.170711 5:-0.999817 6:0.790689 7:-0.291006 8:-0.974173 9:-0.967773 10:-0.531312 11:1 
1 1:0.802044 2:0.736117 3:-0.417881 4:0.913228 5:-0.896981 6:0.823464 7:-0.735042 8:-0.949153 9:-0.929712 10:0.0727457 11:0.83728 
1 1:0.797339 2:-0.155409 3:-0.263445 4:0.57169 5:-0.998821 6:0.757318 7:-0.534561 8:-0.918483 9:-0.899986 10:-0.405566 11:0.70968 
1 1:0.78982 2:0.727426 3:-0.379374 4:0.910298 5:-0.909985 6:0.800819 7:-0.70239 8:-0.984127 9:-0.976663 10:0.166865 11:0.9826 
1 1:-0.532385 2:0.796164 3:-0.501698 4:0.885666 5:-0.99553 6:0.800819 7:-0.0297784 8:-0.542642 9:-0.898041 10:-1 11:-0.88888 
1 1:0.454175 2:0.408333 3:-0.615122 4:0.744386 5:-0.997704 6:0.87933 7:-0.475753 8:-0.929782 9:-0.903598 10:0.06723 11:0.6087 
1 1:0.753979 2:0.151025 3:-0.727425 4:0.941214 5:-0.999512 6:0.916127 7:-0.390248 8:-0.859026 9:-0.839422 10:-0.468849 11:0.29412 
1 1:0.163466 2:0.221502 3:-0.877768 4:0.729314 5:-0.999919 6:0.587635 7:0.131486 8:-0.990584 9:-0.983331 10:-0.238011 11:1 
1 1:-0.661541 2:0.82428 3:-0.155735 4:0.919164 5:-0.0653066 6:-0.130279 7:0.749868 8:-0.989239 9:-0.984998 10:-0.206678 11:1 
1 1:-0.49355 2:0.5347 3:-0.511291 4:0.768903 5:-0.850551 6:-0.0654749 7:0.840574 8:-0.980899 9:-0.968885 10:0.523508 11:0.85714 
1 1:-0.0162768 2:0.961342 3:-0.943211 4:0.995875 5:-0.162372 6:0.633669 7:-0.404184 8:-0.495561 9:-0.387693 10:-0.383561 11:0.17 
1 1:0.438303 2:-1 3:-0.0675829 4:-0.859299 5:-0.999756 6:0.474562 7:0.559674 8:-0.99166 9:-0.986387 10:-0.083513 11:1 
1 1:0.72084 2:0.845895 3:-0.602896 4:0.701212 5:-0.987117 6:0.410801 7:-0.457431 8:-0.945386 9:-0.962773 10:-0.390104 11:0.93548 
1 1:-0.232963 2:0.300179 3:0.0329643 4:0.311297 5:-0.999939 6:0.506443 7:-0.317917 8:-0.984127 9:-0.977497 10:-0.0375391 11:1 
-1 1:0.0647921 2:0.545357 3:0.235632 4:0.490623 5:-0.945381 6:0.234711 7:0.318753 8:-0.995695 9:-0.992221 10:-0.555164 11:1 
-1 1:0.12722 2:0.888144 3:0.186512 4:0.387082 5:-0.994859 6:0.259888 7:-0.550416 8:-0.992736 9:-0.989165 10:0.127375 11:1 
-1 1:0.538756 2:-0.150647 3:-0.831823 4:0.317657 5:-0.953387 6:0.137877 7:0.280164 8:-0.993543 9:-0.989999 10:-0.479587 11:1 
-1 1:0.442086 2:0.910213 3:-0.831752 4:0.916543 5:-0.991649 6:0.693706 7:-0.0486347 8:-0.841539 9:-0.820808 10:0.0893808 11:0.2973 
-1 1:-0.0579707 2:0.498196 3:0.604695 4:-0.15799 5:-0.991933 6:-1 7:-0.323204 8:-0.981168 9:-0.974719 10:0.171794 11:1 
-1 1:-0.675995 2:0.455531 3:-0.603873 4:0.639381 5:-0.994656 6:0.736462 7:0.281708 8:-0.976325 9:-0.980553 10:-0.335006 11:1 
-0.1536852774039328 1:-0.109863 2:0.880888 3:0.0308736 4:0.901856 5:-0.993132 6:0.367151 7:0.275104 8:-0.974173 9:-0.979442 10:-0.19949 11:1 
-1 1:0.0281636 2:0.117052 3:-0.167535 4:0.57489 5:-0.917158 6:0.178101 7:0.476535 8:-0.991122 9:-0.987498 10:-0.256671 11:1 
-1 1:0.0824197 2:0.990817 3:-0.66396 4:0.963957 5:0.802719 6:0.592104 7:0.179065 8:-0.992198 9:-0.986387 10:0.619094 11:1 
-1 1:0.0573178 2:0.0996693 3:-0.1319 4:0.545246 5:-0.949303 6:0.342123 7:0.401457 8:-0.991929 9:-0.987776 10:-0.117663 11:1 
-1 1:-0.562169 2:0.0892773 3:-0.0495271 4:0.339013 5:-0.942821 6:0.710838 7:0.329107 8:-0.990046 9:-0.986109 10:-0.652775 11:1 
-1 1:0.72057 2:0.628947 3:-0.755118 4:0.924985 5:-0.983236 6:0.746741 7:-0.0395776 8:-0.88028 9:-0.881372 10:-0.84069 11:0.13726 
-0.6669278218220938 1:-0.539116 2:0.984506 3:-0.491128 4:0.611973 5:-0.991019 6:-0.100931 7:0.280325 8:-0.997041 9:-0.994721 10:-0.896199 11:1 
-1 1:-0.392625 2:0.922532 3:-0.616899 4:0.927645 5:-0.981916 6:0.523128 7:0.344046 8:-0.996772 9:-0.993888 10:0.736948 11:1 
-1 1:-0.456381 2:0.894643 3:-0.594657 4:0.891988 5:-0.977445 6:0.585996 7:0.406203 8:-0.962066 9:-0.95416 10:-0.147413 11:0.86364 
-1 1:0.55008 2:0.490335 3:-0.563266 4:0.813465 5:-0.968017 6:0.702644 7:-0.0427258 8:-0.985741 9:-0.980553 10:-0.174258 11:1 
-0.1052035477731942 1:-0.386681 2:0.500538 3:-0.754727 4:0.903205 5:-0.975353 6:0.64648 7:0.428395 8:-0.971482 9:-0.973052 10:-0.131893 11:0.93548 
-1 1:0.522952 2:0.8677 3:-0.438464 4:0.884278 5:-0.992116 6:0.0270391 7:0.102269 8:-0.98063 9:-0.980553 10:0.8957 11:1 
-1 1:0.425268 2:0.793784 3:-0.234983 4:0.862151 5:-0.6107 6:0.587039 7:-0.0305738 8:-0.825128 9:-0.862203 10:-0.987238 11:-0.04348 
-1 1:0.46354 2:0.629325 3:-0.688463 4:0.862768 5:-0.591498 6:0.57825 7:-0.0724909 8:-0.748722 9:-0.867482 10:-0.99912 11:-0.52942 
-1 1:-0.301583 2:0.956769 3:-0.432304 4:0.548677 5:-0.972305 6:0.064879 7:0.144307 8:-0.991929 9:-0.988332 10:-0.695052 11:1 
-1 1:0.276031 2:0.83675 3:-0.829867 4:0.910337 5:0.936095 6:0.656313 7:-0.0253802 8:-0.937315 9:-0.942492 10:-0.893559 11:0.55556 
-1 1:-0.323645 2:0.325763 3:-0.831764 4:0.890639 5:-0.924452 6:0.294004 7:0.250647 8:-0.981975 9:-0.976941 10:-0.577198 11:1 
-1 1:-0.462415 2:0.660765 3:-0.432783 4:0.268855 5:-0.965437 6:-0.112998 7:0.525718 8:-0.996234 9:-0.993332 10:-0.602312 11:1 
-1 1:0.471555 2:0.991989 3:-0.715914 4:0.928994 5:-0.970557 6:0.428827 7:-0.202761 8:-0.984665 9:-0.977219 10:0.217063 11:1 
-1 1:-0.0115266 2:0.797411 3:-0.554725 4:0.436501 5:-0.98411 6:0.375493 7:-0.263026 8:-1 9:-1 10:-0.83447 11:1 
-1 1:-0.124947 2:0.15624 3:0.0522624 4:0.68055 5:-0.954647 6:0.634115 7:0.339601 8:-0.984934 9:-0.984164 10:-0.591926 11:1 
-1 1:0.319278 2:0.980765 3:-0.669318 4:0.713818 5:-0.988296 6:0.751508 7:-0.0541292 8:-0.987355 9:-0.981942 10:0.117634 11:1 
-1 1:0.881447 2:0.807426 3:-0.52077 4:0.908255 5:-0.920612 6:0.816164 7:-0.164941 8:-0.824321 9:-0.8422 10:-0.898664 
-1 1:0.877327 2:0.924346 3:-0.754759 4:0.992367 5:0.894156 6:0.817058 7:-0.0406671 8:-0.799031 9:-0.878872 10:-0.995717 11:-0.39394 
-1 1:0.819964 2:0.580954 3:-0.757613 4:0.709732 5:-0.936034 6:0.747188 7:-0.14555 8:-0.900726 9:-0.886095 10:-0.780516 11:0.2653 
-1 1:0.684955 2:0.497591 3:-0.668327 4:0.852476 5:-0.778112 6:0.935791 7:-0.00280739 8:-0.824052 9:-0.890263 10:-0.983424 11:-0.32204 
-1 1:0.856593 2:0.725876 3:-0.575747 4:0.778116 5:-0.987565 6:0.584804 7:-0.552909 8:-0.99435 9:-0.989721 10:-0.198932 11:1 
-1 1:0.893852 2:0.852773 3:-0.515556 4:0.80907 5:-0.991181 6:0.373259 7:-0.459858 8:-0.973097 9:-0.96944 10:0.287037 11:1 
-0.7412578040526319 1:0.668835 2:0.369901 3:-0.446076 4:0.742074 5:-0.95865 6:0.498845 7:0.170188 8:-0.96933 9:-0.972774 10:-0.0700172 11:1 
-1 1:0.801639 2:0.769296 3:-0.578945 4:0.982885 5:-0.10686 6:0.100335 7:-0.148551 8:0.390369 9:-0.415474 10:-0.763852 11:-0.85264 
-1 1:0.320313 2:0.585489 3:-0.773515 4:0.911416 5:-0.979884 6:0.720074 7:-0.53668 8:-0.965833 9:-0.963606 10:-0.375493 11:1 
-1 1:0.568946 2:0.306793 3:-0.436626 4:0.679934 5:-0.99362 6:0.78905 7:-0.50372 8:-0.989777 9:-0.983331 10:-0.430357 11:1 
-1 1:0.570296 2:0.750893 3:-0.62724 4:0.87468 5:-0.993945 6:0.604767 7:-0.29624 8:-0.985472 9:-0.979442 10:0.184585 11:1 
-1 1:0.60204 2:0.306793 3:-0.679896 4:0.709192 5:-0.993782 6:0.804246 7:-0.45062 8:-0.979822 9:-0.975552 10:0.96183 11:1 
-1 1:0.639906 2:0.287785 3:-0.0431427 4:0.639612 5:-0.993376 6:0.810205 7:-0.351813 8:-0.996234 9:-0.993055 10:-0.319691 11:1 
-1 1:0.573268 2:0.61247 3:0.0755644 4:0.766629 5:-0.990795 6:0.634115 7:-0.331339 8:-0.989239 9:-0.983053 10:0.094163 11:1 
-1 1:0.509444 2:0.975966 3:-0.631559 4:0.982692 5:-0.287357 6:0.79933 7:-0.7797 8:-0.992467 9:-0.986665 10:-0.136118 11:1 
-1 1:0.289358 2:0.816419 3:-0.429338 4:0.974481 5:-0.64947 6:0.533855 7:-0.482885 8:-0.446597 9:-0.406584 10:-0.0243366 11:0.03922 
-1 1:0.928882 2:0.330335 3:-0.667089 4:0.861072 5:-0.892145 6:0.709944 7:-0.102149 8:-0.815174 9:-0.753577 10:0.196321 11:0.4 
-1 1:0.669061 2:0.777723 3:-0.105373 4:0.594164 5:-0.982932 6:0.53892 7:0.174586 8:-1 9:-1 10:0.107424 11:1 
-1 1:0.704879 2:-0.254606 3:-0.790953 4:0.107299 5:-0.966453 6:0.722458 7:0.337094 8:-0.990584 9:-0.985831 10:0.232437 11:1 
-1 1:0.80855 2:0.553821 3:-0.392865 4:0.860879 5:0.0666477 6:0.826443 7:0.128037 8:-0.683885 9:-0.836644 10:-0.87886 11:-0.53334 
-0.213908800869572 1:0.651636 2:0.419254 3:-0.254828 4:0.697936 5:-0.557687 6:0.75121 7:0.48495 8:-0.761098 9:-0.804695 10:-0.496281 11:-0.15524 
-1 1:0.552219 2:0.415475 3:0.089498 4:0.49548 5:-0.990287 6:1 7:-0.0399118 8:-0.507398 9:-0.923601 10:-1 11:-1 
-0.3151111184533751 1:0.962358 2:0.866679 3:-0.89204 4:0.95432 5:-0.157374 6:0.842682 7:-0.0444704 8:-0.770514 9:-0.871093 10:-0.991609 11:-0.45 
-1 1:0.625498 2:0.862863 3:-0.547729 4:0.819825 5:-0.980778 6:0.870093 7:-0.0362488 8:-0.90261 9:-0.894152 10:-0.941674 11:0.48 
-1 1:0.817893 2:0.973699 3:-0.968839 4:1 5:-0.339233 6:0.806778 7:-0.790976 8:-0.987086 9:-0.979719 10:0.0488052 11:1 
-1 1:0.975281 2:0.997393 3:-0.616063 4:0.940096 5:-0.95422 6:0.804097 7:0.190301 8:-0.662631 9:-0.744409 10:-0.528613 11:-0.25 
-1 1:0.0476823 2:0.994445 3:-0.406744 4:0.975136 5:0.157577 6:0.85013 7:0.444417 8:-0.950498 9:-0.955272 10:0.741906 11:0.75 
-1 1:0.382381 2:0.948304 3:-0.713993 4:0.960912 5:-0.717784 6:0.670168 7:-0.649945 8:-0.497982 9:-0.568273 10:-0.507107 11:-0.17046 
-0.02019243341806944 1:0.979941 2:0.737326 3:-0.732418 4:0.96149 5:-0.841326 6:0.827635 7:-0.0394372 8:-0.83562 9:-0.866648 10:-0.989907 11:-0.04142 
-1 1:0.524708 2:0.485309 3:0.363764 4:0.110884 5:-0.957309 6:0.579143 7:-0.675933 8:-0.900995 9:-0.86637 10:-0.235518 11:0.69812 
-1 1:0.856255 2:0.728446 3:-0.761448 4:0.821676 5:-0.981611 6:0.88216 7:0.0710939 8:-0.78558 9:-0.794972 10:-0.0794056 
-1 1:0.551588 2:0.959036 3:-0.134472 4:0.491818 5:-0.973382 6:0.800372 7:-0.569232 8:-0.975518 9:-0.973052 10:-0.179099 11:1 
-1 1:-0.331277 2:0.728446 3:-0.648629 4:0.821676 5:-0.986102 6:0.887076 7:0.033936 8:-0.903955 9:-0.895541 10:-0.102143 11:0.4054 
-1 1:0.291227 2:0.979858 3:-0.945596 4:0.997186 5:-0.281668 6:0.742868 7:-0.755383 8:-0.99166 9:-0.985554 10:-0.130132 11:1 
-1 1:0.736577 2:0.449636 3:-0.117661 4:0.689764 5:-0.856667 6:0.897803 7:0.381866 8:-0.693839 9:-0.828032 10:-0.978935 11:-0.42222 
-1 1:0.681825 2:0.527482 3:-0.165615 4:0.861303 5:0.271854 6:0.0435754 7:-0.467337 8:-0.973097 9:-0.972218 10:-0.942907 11:1 
-1 1:0.817871 2:0.730184 3:-0.10632 4:0.888981 5:-0.98092 6:0.510912 7:-0.316881 8:-0.992736 9:-0.98722 10:-0.163432 11:1 
-1 1:-0.0640942 2:0.0770335 3:-0.791715 4:0.830927 5:-0.380054 6:0.719628 7:0.387888 8:-0.968523 9:-0.970551 10:-0.304581 11:1 
-1 1:0.644859 2:0.700595 3:-0.528115 4:0.749398 5:-0.992685 6:0.794264 7:-0.316868 8:-0.980361 9:-0.974163 10:-0.235664 11:1 
-1 1:-0.237398 2:0.93247 3:-0.631381 4:0.950465 5:-0.892348 6:0.686853 7:0.422192 8:-0.940812 9:-0.928323 10:0.525738 11:0.91892 
-1 1:-0.349805 2:0.401568 3:-0.66952 4:0.919781 5:-0.978441 6:0.838063 7:0.254123 8:-0.98601 9:-0.979164 10:-0.0453139 11:1 
-1 1:-0.349805 2:0.470005 3:-0.702077 4:0.898194 5:-0.991771 6:0.767002 7:0.213709 8:-0.896422 9:-0.901653 10:0.0997668 11:0.53846 
-1 1:0.418672 2:0.528389 3:-0.713795 4:0.682054 5:0.993457 6:0.801415 7:0.344828 8:-0.908528 9:-0.887484 10:0.332893 11:0.52 
-1 1:1 2:0.129296 3:-0.737138 4:0.975676 5:-0.609197 6:0.748082 7:-0.461903 8:-0.992198 9:-0.986387 10:-0.453095 11:1 
-1 1:0.780162 2:0.500538 3:-0.163231 4:0.549872 5:-0.975373 6:0.0824581 7:-0.340938 8:-0.490718 9:-0.710793 10:-0.972392 11:-0.53334 
-1 1:0.468088 2:0.973963 3:0.162531 4:0.779697 5:-0.859532 6:0.834488 7:-0.69747 8:-0.919559 9:-0.885817 10:0.182356 11:0.6962 
-1 1:-0.0106261 2:0.927671 3:-0.288035 4:0.542972 5:-0.839802 6:0.764469 7:-0.724301 8:-0.974173 9:-0.959994 10:0.0366296 11:0.8909 
-1 1:0.0779621 2:0.78513 3:-0.509074 4:0.509319 5:-0.974621 6:0.759553 7:-0.59383 8:-0.910412 9:-0.884151 10:0.370594 11:0.62962 
-1 1:0.679371 2:0.486783 3:-0.502255 4:0.826648 5:-0.992461 6:0.560521 7:-0.598229 8:-0.987355 9:-0.981664 10:0.0654696 11:1 
-1 1:0.125352 2:0.744506 3:-0.679368 4:0.940135 5:0.168509 6:0.620112 7:0.387287 8:-0.845843 9:-0.792471 10:-0.181006 11:0.3976 
-1 1:-0.190414 2:0.463165 3:-0.398397 4:0.612744 5:-0.992116 6:0.800968 7:-0.371331 8:-0.991929 9:-0.986109 10:-0.392539 11:1 
-1 1:0.656971 2:0.930732 3:-0.345717 4:0.908448 5:0.138985 6:0.63933 7:-0.303212 8:0.732849 9:-0.541325 10:-0.94895 11:-0.94594 
