svm_type c_svc
kernel_type rbf
gamma 0.0666667
nr_class 2
total_sv 87
rho -1.04158
label 0 1
probA -23.8647
probB 21.5231
nr_sv 51 36
SV
1 1:0.600273 2:0.858619 3:-0.589117 4:0.951703 5:0.563987 6:-0.623475 7:-0.96053 8:-1 9:0.99868 10:-0.743015 11:-0.0093873 12:-1 13:-1 14:1 15:-1 
0.1419577667440824 1:0.684428 2:0.488545 3:0.0581841 4:0.480572 5:0.827186 6:-0.601231 7:-0.0664373 8:-0.876555 9:0.332813 10:-0.580581 11:-0.0093873 12:-1 13:-1 14:1 15:-1 
0.8712299593699717 1:0.860077 2:0.587536 3:0.415611 4:0.455042 5:0.0911735 6:-0.387309 7:-0.506553 8:-1 9:0.807169 10:-0.637377 11:-0.892611 12:-0.100348 13:0.957714 14:-0.698464 15:-0.391314 
1 1:0.266186 2:0.311471 3:-0.716575 4:0.77799 5:-0.0254494 6:-0.638078 7:-0.988128 8:-1 9:0.99986 10:-0.996674 11:1 12:-1 13:-1 14:1 15:-1 
1 1:0.212549 2:0.805529 3:-0.693709 4:0.647047 5:-0.525894 6:-0.475812 7:-0.972637 8:-1 9:0.99936 10:-0.924554 11:1 12:-1 13:0.619487 14:-0.925741 15:0.00762398 
0.9843723578709387 1:0.515515 2:0.184547 3:-0.899322 4:0.971837 5:0.0202989 6:-0.218891 7:-0.961959 8:-0.739777 9:0.992539 10:-0.593427 11:-0.746795 12:0.611203 13:0.186466 14:-0.440745 15:0.256825 
0.9858118379222667 1:0.195259 2:0.830114 3:-0.919418 4:0.937687 5:-0.209614 6:-0.318684 7:-0.603956 8:-1 9:0.87494 10:-0.799485 11:-0.755446 12:0.632766 13:0.967675 14:-0.710458 15:0.41172 
0.415961154180444 1:0.747696 2:0.584678 3:-0.73093 4:0.946373 5:0.90305 6:-0.557148 7:-0.0811801 8:-1 9:0.359117 10:-0.538783 11:-0.0093873 12:-1 13:-1 14:1 15:-1 
0.597698365839761 1:0.0690068 2:0.749336 3:-0.390831 4:0.799967 5:0.503797 6:-0.261215 7:-0.917161 8:-0.699573 9:0.99924 10:-0.600665 11:1 12:-1 13:0.880363 14:-0.633206 15:0.254183 
0.1710288932025034 1:0.706885 2:0.692082 3:-0.814411 4:0.984669 5:-0.28465 6:0.659308 7:-0.950277 8:-0.699573 9:0.993619 10:-0.509765 11:1 12:-1 13:-1 14:1 15:-1 
0.6444186248531528 1:0.0516973 2:0.484788 3:-0.367154 4:0.820365 5:0.420885 6:-0.276427 7:-0.909187 8:-0.646676 9:0.992879 10:-0.595905 11:-0.824488 12:0.587906 13:0.884804 14:-0.902623 15:-0.00847948 
0.718173775366272 1:0.715248 2:0.747213 3:-0.245822 4:0.702583 5:0.0945264 6:-0.308407 7:-0.931536 8:-1 9:0.996139 10:-0.308728 11:-0.854265 12:0.28346 13:0.950753 14:-0.758712 15:0.342098 
0.8963726271237968 1:-0.020697 2:0.358598 3:-0.350253 4:0.535647 5:0.451747 6:0.241067 7:-0.974993 8:-1 9:0.99946 10:-0.984676 11:1 12:-1 13:-1 14:1 15:-1 
1 1:0.349437 2:0.0340997 3:-0.79647 4:0.896891 5:0.539729 6:-0.863493 7:-0.968169 8:-1 9:0.99914 10:-0.854847 11:-0.966771 12:0.362416 13:0.963715 14:-0.718101 15:0.551896 
0.1380512521906297 1:0.253822 2:-0.172377 3:-0.612978 4:0.616911 5:0.650495 6:-0.859775 7:-0.799353 8:-0.647376 9:0.742199 10:-0.863519 11:-0.839225 12:-0.149794 13:0.903627 14:-0.642526 15:0.383917 
1 1:0.170391 2:-0.0880876 3:0.0590616 4:0.460109 5:0.597495 6:0.637876 7:-0.900107 8:-1 9:0.991839 10:-0.82133 11:1 12:-1 13:-1 14:1 15:-1 
0.9868920871284739 1:0.49517 2:0.172459 3:-0.791708 4:0.920908 5:-0.261584 6:-0.748622 7:-0.984889 8:-1 9:0.9998 10:-0.734146 11:-0.0093873 12:-1 13:-1 14:1 15:-1 
0.7849349725426414 1:0.717319 2:0.588353 3:-0.86184 4:0.604014 5:-0.582751 6:-0.731179 7:-0.529304 8:-1 9:0.824252 10:-0.894298 11:-0.916362 12:0.649589 13:-1 14:1 15:-1 
1 1:0.846124 2:0.846204 3:-0.874555 4:0.971048 5:-0.20404 6:-0.908658 7:-0.913319 8:-1 9:0.993839 10:-0.919207 11:-0.0093873 12:-1 13:-1 14:1 15:-1 
1 1:0.732819 2:0.516315 3:-0.601993 4:0.791018 5:0.0567966 6:-0.74727 7:-0.272735 8:-1 9:0.589614 10:-0.745166 11:1 12:-1 13:-1 14:1 15:-1 
0.4822951051515559 1:0.61306 2:0.492547 3:-0.702438 4:0.930844 5:-0.709473 6:-0.598526 7:0.760553 8:-1 9:0.987158 10:-0.961136 11:-0.0093873 12:-1 13:-1 14:1 15:-1 
1 1:0.281566 2:0.564749 3:-0.871812 4:0.73976 5:0.993092 6:-0.902775 7:-0.946714 8:-1 9:0.99764 10:-0.91373 11:-0.0093873 12:-1 13:-1 14:1 15:-1 
0.8904290470511419 1:0.113396 2:0.459305 3:-0.545482 4:0.94532 5:0.829307 6:-0.807917 7:-0.966918 8:-0.848342 9:0.9991 10:-0.783574 11:-0.0093873 12:-1 13:-1 14:1 15:-1 
1 1:0.266809 2:0.326418 3:-0.73268 4:0.947228 5:0.884044 6:-0.900747 7:-0.577855 8:-1 9:0.858157 10:-0.949855 11:-0.0093873 12:-1 13:-1 14:1 15:-1 
0.444577504934052 1:0.706905 2:0.177768 3:0.399662 4:0.292055 5:-0.901333 6:0.0190325 7:-0.8945 8:-1 9:0.990919 10:-0.0282025 11:1 12:-1 13:0.974516 14:-0.72604 15:-0.286893 
1 1:0.614788 2:-0.0154776 3:-0.125205 4:0.324165 5:-0.134013 6:0.103141 7:-0.906227 8:-1 9:0.992799 10:-0.708519 11:1 12:-1 13:-1 14:1 15:-1 
0.5381204290451317 1:0.314576 2:0.823907 3:-0.814756 4:0.998487 5:0.88671 6:0.0404652 7:-0.284061 8:-0.780449 9:0.599576 10:-0.845848 11:1 12:-1 13:0.973956 14:-0.761387 15:0.0258159 
1 1:0.463124 2:0.412015 3:-0.454377 4:0.759895 5:-0.474571 6:-0.764646 7:-0.981248 8:-1 9:0.99968 10:-0.755013 11:1 12:-1 13:0.979037 14:-0.656388 15:-0.129381 
0.6823482860437311 1:0.813335 2:0.472536 3:-0.673908 4:0.951571 5:0.572672 6:-0.578716 7:0.701348 8:-0.86649 9:-0.949132 10:-0.941769 11:-0.0093873 12:-1 13:-1 14:1 15:-1 
0.6131366545842829 1:0.615351 2:0.0909462 3:-0.158842 4:0.373581 5:-0.563078 6:-0.728745 7:-0.940995 8:-0.86649 9:0.993559 10:-0.727104 11:1 12:-1 13:0.900126 14:-0.269215 15:-0.055406 
1 1:0.88786 2:0.228489 3:-0.453971 4:0.868794 5:0.634054 6:-0.749704 7:-0.957134 8:-1 9:0.99846 10:-0.742297 11:-0.0093873 12:-1 13:-1 14:1 15:-1 
0.360457093710444 1:0.20312 2:0.870053 3:-0.569057 4:0.937227 5:0.845668 6:-0.664041 7:0.0151169 8:0.347211 9:0.102136 10:-0.760034 11:-0.0093873 12:-1 13:-1 14:1 15:-1 
0.3584284365680368 1:0.25151 2:0.241312 3:-0.216074 4:0.390952 5:0.84181 6:-0.749501 7:0.145836 8:0.40889 9:0.0943551 10:-0.858824 11:-0.0093873 12:-1 13:-1 14:1 15:-1 
0.5062756783362405 1:0.346863 2:-0.285825 3:-0.376016 4:0.494391 5:-0.302262 6:-0.545451 7:0.771085 8:0.302893 9:0.925928 10:-0.529653 11:-0.0093873 12:-1 13:-1 14:1 15:-1 
0.6058704396344033 1:0.600314 2:0.607955 3:-0.55603 4:0.760684 5:-0.544799 6:-0.582502 7:-0.948479 8:0.302893 9:0.928589 10:-0.596361 11:-0.0093873 12:-1 13:-1 14:1 15:-1 
0.6058141420859391 1:0.0320959 2:0.20031 3:-0.221017 4:0.744629 5:-0.979984 6:-0.0061864 7:0.936751 8:0.395761 9:0.632101 10:-0.511526 11:-0.0093873 12:-1 13:-1 14:1 15:-1 
0.4146489123519156 1:0.148558 2:0.11308 3:-0.222631 4:0.74555 5:-0.648455 6:-0.344241 7:0.939097 8:0.395761 9:0.661806 10:-0.902709 11:1 12:-1 13:-1 14:1 15:-1 
1 1:0.797212 2:0.82554 3:-0.470042 4:0.989998 5:0.298384 6:-0.386295 7:-0.860737 8:-0.864185 9:0.485218 10:-0.399107 11:-0.0093873 12:-1 13:-1 14:1 15:-1 
1 1:0.997286 2:0.655082 3:-0.877256 4:1 5:0.378631 6:-0.271019 7:-0.862211 8:-0.858029 9:0.94015 10:-0.67435 11:1 12:-1 13:-1 14:1 15:-1 
0.004985961571826333 1:0.894716 2:0.605913 3:0.169336 4:0.720744 5:0.882872 6:-0.120178 7:-0.868253 8:-0.974004 9:0.900204 10:-0.261909 11:1 12:-1 13:-1 14:1 15:-1 
1 1:-0.0915433 2:0.353535 3:-0.416251 4:0.812535 5:0.677217 6:-0.381427 7:-0.604101 8:-0.890356 9:0.0863938 10:-0.906752 11:1 12:-1 13:-1 14:1 15:-1 
1 1:0.445393 2:0.717319 3:-0.643719 4:0.967429 5:-0.97964 6:0.316521 7:-0.969911 8:-1 9:0.99922 10:-0.984154 11:1 12:-1 13:-1 14:1 15:-1 
0.2524140711662412 1:0.0213604 2:0.736187 3:-0.633002 4:0.956374 5:-0.9776 6:-0.290626 7:-0.987 8:-1 9:0.99984 10:-0.985133 11:1 12:-1 13:-0.975097 14:-0.734553 15:-0.303148 
0.843397426275398 1:0.832353 2:0.756769 3:-0.554063 4:0.973153 5:-0.927974 6:-0.359386 7:0.697193 8:0.630075 9:-0.87414 10:-0.829611 11:-0.0093873 12:-1 13:-1 14:1 15:-1 
1 1:1 2:0.651979 3:-0.27258 4:0.91696 5:0.172894 6:0.0416822 7:-0.968046 8:-0.759092 9:0.87226 10:-0.612859 11:1 12:-1 13:-1 14:1 15:-1 
0.7155286411083369 1:-0.0600203 2:0.700903 3:0.128374 4:0.841487 5:-0.156938 6:-0.649437 7:-0.702721 8:-0.895462 9:-0.081293 10:-0.630596 11:-0.762673 12:-0.189866 13:-1 14:1 15:-1 
0.6041374454792759 1:-0.0471538 2:0.822191 3:-0.152129 4:0.966771 5:-0.0277722 6:-0.371421 7:-0.690994 8:-0.927468 9:-0.522544 10:-0.963288 11:1 12:-1 13:-1 14:1 15:-1 
0.03044697876566931 1:-0.120071 2:0.544901 3:-0.277896 4:0.883139 5:0.182125 6:-0.915283 7:-0.933166 8:-0.833812 9:-0.753861 10:-0.985915 11:-0.384334 12:-0.0192403 13:0.953594 14:-0.641316 15:-0.125783 
0.3962592037120064 1:0.64796 2:-0.163638 3:0.364183 4:0.399441 5:-0.913613 6:-0.618674 7:-0.466893 8:0.418781 9:0.968355 10:-0.697499 11:-0.0093873 12:-1 13:-1 14:1 15:-1 
1 1:0.650895 2:0.228815 3:-0.787088 4:0.946702 5:0.691174 6:-0.244312 7:-0.472667 8:0.418781 9:0.992459 10:-0.966548 11:1 12:-1 13:-1 14:1 15:-1 
0.3135248680894364 1:0.913513 2:0.876588 3:-0.958491 4:0.990196 5:0.00569582 6:-0.167236 7:0.764161 8:0.428351 9:0.987878 10:-0.855107 11:1 12:-1 13:-1 14:1 15:-1 
-1 1:0.38874 2:0.968146 3:-0.767796 4:0.977299 5:0.662795 6:0.121328 7:-0.986866 8:-1 9:0.99984 10:-0.979133 11:1 12:-1 13:0.0156422 14:-0.276878 15:-0.575699 
-1 1:-0.124353 2:0.471638 3:-0.705892 4:0.714164 5:0.167623 6:0.143639 7:-0.93454 8:-1 9:0.996459 10:-0.964136 11:1 12:-1 13:0.484908 14:-0.770855 15:-0.104043 
-1 1:0.100329 2:-0.0229101 3:-0.307785 4:0.353644 5:0.691678 6:0.233021 7:-0.973106 8:-1 9:0.99938 10:-0.946334 11:1 12:-1 13:-1 14:1 15:-1 
-1 1:0.289306 2:0.54727 3:-0.737692 4:0.938806 5:-0.409715 6:-0.502248 7:-0.973787 8:-1 9:0.9994 10:-0.991393 11:-0.921389 12:0.431928 13:0.979317 14:-0.711393 15:0.190323 
-1 1:0.931466 2:0.457263 3:-0.491171 4:0.97493 5:0.733448 6:-0.0830601 7:-0.923427 8:-1 9:0.995179 10:-0.950703 11:1 12:-1 13:-1 14:1 15:-1 
-1 1:0.766935 2:0.478335 3:-0.677845 4:0.973417 5:0.312967 6:0.0431696 7:-0.895058 8:-1 9:0.991019 10:-0.994783 11:1 12:-1 13:-1 14:1 15:-1 
-1 1:0.639798 2:0.529301 3:0.171157 4:0.919526 5:-0.392284 6:0.0495926 7:-0.960652 8:-1 9:0.9987 10:-0.955398 11:1 12:-1 13:0.975737 14:-0.902644 15:0.0110711 
-1 1:0.689253 2:0.38547 3:-0.823787 4:0.977694 5:-0.474975 6:0.0179507 7:-0.967867 8:-1 9:0.99912 10:-0.937791 11:1 12:-1 13:-1 14:1 15:-1 
-1 1:0.817798 2:0.163066 3:-0.709919 4:0.887679 5:-0.410967 6:-0.453027 7:-0.919563 8:-1 9:0.994679 10:-0.987806 11:1 12:-1 13:0.92761 14:-0.848765 15:0.180661 
-1 1:0.667581 2:-0.0376935 3:-0.662129 4:0.99467 5:-0.409251 6:-0.15466 7:-0.955023 8:-0.820333 9:0.99732 10:-0.955593 11:1 12:-1 13:-1 14:1 15:-1 
-1 1:-0.299539 2:0.800956 3:-0.567261 4:0.897483 5:0.977843 6:-0.217268 7:-0.936919 8:-1 9:0.996699 10:-0.964462 11:1 12:-1 13:-1 14:1 15:-1 
-1 1:0.0916438 2:-0.0295259 3:-0.093072 4:0.278895 5:0.614361 6:-0.187925 7:-0.91409 8:-1 9:0.993939 10:-0.98135 11:1 12:-1 13:-1 14:1 15:-1 
-1 1:0.251812 2:0.28754 3:-0.527676 4:0.891364 5:0.522036 6:-0.461276 7:-0.972826 8:-1 9:0.99936 10:-0.991719 11:-0.931735 12:0.497152 13:0.977657 14:-0.749222 15:0.55016 
-1 1:0.399556 2:0.659574 3:-0.51128 4:0.857213 5:0.700889 6:-0.498259 7:-0.958854 8:-1 9:0.99858 10:-0.982589 11:-1 12:0.404841 13:0.943632 14:-0.877997 15:0.864605 
-1 1:0.786657 2:-0.219749 3:-0.604075 4:0.607567 5:0.619107 6:-0.444982 7:-0.955437 8:-0.938321 9:0.933749 10:-0.975612 11:-0.888907 12:0.301898 13:-1 14:1 15:-1 
-1 1:0.473217 2:0.797689 3:-0.599841 4:0.942359 5:0.84084 6:-0.403942 7:-0.911208 8:-1 9:0.993539 10:-0.990871 11:-0.969113 12:0.323615 13:-1 14:1 15:-1 
-1 1:0.113939 2:0.742476 3:-0.567033 4:0.890245 5:0.788285 6:-0.437003 7:-0.915408 8:-1 9:0.994139 10:-0.991262 11:-0.945382 12:0.316832 13:0.935951 14:-0.41527 15:0.882822 
-1 1:0.557432 2:0.334341 3:-0.589293 4:0.804771 5:0.468067 6:-0.235252 7:-0.934819 8:-0.953406 9:0.266543 10:-0.902775 11:1 12:-1 13:-1 14:1 15:-1 
-1 1:0.203522 2:0.246621 3:-0.73049 4:0.898865 5:-0.021935 6:-0.781481 7:-0.232584 8:-0.784038 9:0.808109 10:-0.819765 11:-0.0093873 12:-1 13:-1 14:1 15:-1 
-1 1:0.656022 2:0.780373 3:-0.088178 4:0.730219 5:0.212583 6:-0.921707 7:-0.952622 8:-0.838218 9:-0.391563 10:-0.951224 11:-0.0093873 12:-1 13:-1 14:1 15:-1 
-1 1:0.265322 2:0.447135 3:-0.584591 4:0.871755 5:-0.676267 6:-0.678037 7:-0.201054 8:-0.190739 9:0.917927 10:-0.72906 11:-0.0093873 12:-1 13:-1 14:1 15:-1 
-1 1:0.251128 2:0.529056 3:-0.679321 4:0.864583 5:-0.504969 6:-0.70143 7:-0.154592 8:-0.208304 9:0.525584 10:-0.789378 11:-0.0093873 12:-1 13:-1 14:1 15:-1 
-1 1:0.828031 2:0.405807 3:-0.378694 4:0.789242 5:0.947081 6:-0.669585 7:-0.929179 8:-0.646997 9:0.118399 10:-0.663526 11:-0.0093873 12:-1 13:-1 14:1 15:-1 
-1 1:0.0868189 2:0.466247 3:-0.53127 4:0.885573 5:-0.269905 6:-0.50475 7:0.766729 8:0.0403069 9:0.910246 10:-0.474618 11:-0.0093873 12:-1 13:-1 14:1 15:-1 
-1 1:0.193611 2:0.180545 3:-0.803305 4:0.916236 5:0.173743 6:-0.781076 7:-0.216512 8:-0.886359 9:-0.356237 10:-0.766294 11:-0.0093873 12:-1 13:-1 14:1 15:-1 
-1 1:0.810038 2:0.488382 3:-0.510269 4:0.844711 5:0.98263 6:-0.85058 7:-0.852952 8:-0.861034 9:0.0148224 10:-0.874605 11:-0.0093873 12:-1 13:-1 14:1 15:-1 
-1 1:0.651277 2:0.433087 3:-0.513403 4:0.887876 5:-0.332559 6:-0.519016 7:0.874709 8:0.464617 9:0.638442 10:-0.545369 11:-0.0093873 12:-1 13:-1 14:1 15:-1 
-1 1:0.283596 2:0.369788 3:-0.610788 4:0.894325 5:-0.202505 6:-0.47277 7:0.768293 8:0.443055 9:0.135802 10:-0.712302 11:-0.0093873 12:-1 13:-1 14:1 15:-1 
-1 1:0.890454 2:0.349124 3:-0.60823 4:0.845172 5:0.756655 6:-0.815287 7:-0.931681 8:-0.81298 9:0.93603 10:-0.85589 11:-0.0093873 12:-1 13:-1 14:1 15:-1 
-1 1:0.947649 2:0.49124 3:-0.524987 4:0.785952 5:-0.293961 6:-0.162571 7:-0.866265 8:-0.42059 9:0.918967 10:-0.420169 11:1 12:-1 13:-1 14:1 15:-1 
-1 1:0.485882 2:0.470576 3:-0.577216 4:0.716927 5:-0.758352 6:-0.294277 7:0.566094 8:0.0506645 9:0.484398 10:-0.331812 11:1 12:-1 13:-1 14:1 15:-1 
-1 1:0.826845 2:0.82554 3:-0.431572 4:0.986774 5:0.47552 6:-0.919813 7:-0.973474 8:-0.885688 9:0.777104 10:-0.925663 11:-0.0093873 12:-1 13:-1 14:1 15:-1 
-1 1:0.994451 2:0.585984 3:0.021293 4:0.940648 5:-0.911856 6:-0.469389 7:-0.882773 8:-1 9:0.988798 10:-0.448339 11:-0.644009 12:0.654507 13:0.994779 14:-0.804991 15:-0.416275 
-1 1:0.617402 2:0.911872 3:-0.181347 4:0.756736 5:0.0304383 6:-0.893648 7:-0.925303 8:-0.954223 9:0.913426 10:-0.891754 11:-0.0093873 12:-1 13:-1 14:1 15:-1 
-1 1:0.985746 2:0.712174 3:-0.583601 4:0.945715 5:-0.912967 6:-0.476353 7:-0.929782 8:-1 9:0.995939 10:-0.458511 11:1 12:-1 13:-1 14:1 15:-1 
-1 1:0.424163 2:0.635562 3:0.734885 4:0.217108 5:-0.875096 6:-0.445049 7:-0.958631 8:-1 9:0.99856 10:-0.44097 11:1 12:-1 13:0.989679 14:-0.808557 15:0.0693204 
