svm_type c_svc
kernel_type rbf
gamma 2
nr_class 2
total_sv 236
rho 0.136483
label 0 1
probA -3.45489
probB -0.395073
nr_sv 107 129
SV
0.1338470078597391 1:-0.582259 2:0.211517 3:-0.051831 4:-0.460022 5:-0.972848 6:0.778652 7:-0.644206 8:0.154696 9:-0.10601 10:-0.45733 11:-0.310631 
0.5 1:-0.778553 2:0.226025 3:-0.130442 4:-0.1838 5:-0.967719 6:0.645056 7:-0.910106 8:0.286504 9:-0.167223 10:-0.956281 11:-0.612359 
0.5 1:-0.608771 2:0.242624 3:0.259727 4:-0.214681 5:-0.831367 6:0.476511 7:-0.837144 8:-0.166272 9:0.012243 10:-0.664528 11:0.15328 
0.5 1:-0.122882 2:0.998442 3:-0.60839 4:0.639044 5:-0.999593 6:0.860655 7:-0.365251 8:-0.936333 9:-0.969672 10:-0.354833 11:1 
0.5 1:0.689824 2:0.677851 3:-0.675707 4:0.384211 5:-0.996235 6:0.578788 7:0.2506 8:-0.94633 9:-0.966611 10:-0.232166 11:1 
0.5 1:-0.641871 2:0.797339 3:-0.544154 4:0.726942 5:-0.995359 6:0.651713 7:0.049583 8:-0.848724 9:-0.875904 10:-0.187555 11:0.209089 
0.5 1:0.737098 2:0.165591 3:-0.655827 4:-0.041291 5:0.085171 6:0.914971 7:0.401366 8:-0.836622 9:-0.958542 10:-1 11:-0.542258 
0.5 1:0.323319 2:0.116506 3:0.229936 4:-0.422053 5:-0.917729 6:0.837961 7:-0.831133 8:0.112339 9:-0.154981 10:-0.832534 11:-0.379581 
0.5 1:0.262483 2:0.965511 3:-0.752351 4:0.798703 5:-0.993181 6:0.33989 7:0.357491 8:-0.958432 9:-0.972732 10:0.078327 11:1 
0.5 1:0.355219 2:0.798006 3:-0.775268 4:0.825028 5:-0.995054 6:0.764884 7:-0.219624 8:-0.958958 9:-0.979688 10:-0.6384 11:1 
0.5 1:0.252839 2:0.063148 3:-0.1551 4:-0.405347 5:-0.908366 6:0.911037 7:-0.676711 8:-0.677979 9:-0.559822 10:-0.230876 11:0.464487 
0.3676195099517636 1:-0.481282 2:0.125139 3:0.076245 4:-0.418953 5:-0.902484 6:0.891066 7:-0.803639 8:-0.526967 9:-0.371731 10:-0.473209 11:0.463068 
0.3202538348218791 1:-0.231873 2:0.313026 3:0.497411 4:-0.179181 5:-0.938266 6:0.950526 7:-0.786206 8:-0.373586 9:-0.232053 10:-0.693073 11:0.145836 
0.5 1:0.239933 2:-0.437453 3:-0.787646 4:-0.916342 5:-0.99998 6:0.566836 7:0.476205 8:-0.962378 9:-0.988036 10:0.094698 11:1 
0.4566639257209537 1:-0.081834 2:0.436741 3:-0.3554 4:0.58842 5:-0.963058 6:0.947349 7:-0.853071 8:0.167851 9:-0.326934 10:-0.907683 11:-0.689718 
0.2470589419322255 1:-0.40736 2:0.084286 3:0.095665 4:-0.531213 5:-0.888542 6:0.586807 7:-0.862493 8:0.368061 9:-0.144964 10:-0.902687 11:-0.588999 
0.5 1:-0.412907 2:0.876997 3:-0.707931 4:0.775542 5:-0.972848 6:0.865194 7:-0.123155 8:-0.976322 9:-0.997496 10:-0.834223 11:1 
0.5 1:-0.056432 2:0.706778 3:-0.020249 4:0.48255 5:-0.994301 6:-0.195552 7:0.136943 8:-0.864246 9:-0.890651 10:-0.088858 11:0.567078 
0.2272204050038404 1:-0.330745 2:0.048462 3:0.137523 4:-0.74561 5:-0.863079 6:0.639458 7:-0.801232 8:0.217837 9:0.008069 10:-0.727715 11:-0.309973 
0.3364696312895503 1:0.286211 2:0.435139 3:-0.013289 4:0.394526 5:-0.983106 6:0.831455 7:-0.889377 8:-0.699553 9:-0.592654 10:-0.932685 11:0.323237 
0.5 1:-0.236039 2:0.995327 3:1 4:0.50761 5:-1 6:0.777593 7:-0.366466 8:-0.954223 9:-0.968559 10:-0.040494 11:1 
0.4633350528051164 1:-0.049549 2:0.430466 3:-0.31903 4:0.505458 5:-0.962467 6:0.747485 7:-0.740506 8:-0.983689 9:-0.989149 10:-0.779057 11:1 
0.5 1:-0.129266 2:0.028659 3:-0.302554 4:-0.506217 5:-0.957623 6:0.776988 7:-0.865306 8:-0.7598 9:-0.620479 10:-0.90787 11:0.582315 
0.5 1:0.193203 2:0.865293 3:-0.059973 4:0.622148 5:-0.978323 6:-0.076783 7:0.334856 8:-0.935806 9:-0.951308 10:0.078725 11:0.917746 
0.02781058841901918 1:-0.304233 2:0.405945 3:-0.490482 4:0.158108 5:-0.90053 6:0.725547 7:-0.688668 8:-0.126283 9:-0.104062 10:-0.396254 11:-0.010446 
0.5 1:-0.121523 2:0.573806 3:-0.333562 4:-0.196773 5:-0.998799 6:0.940389 7:-0.633569 8:-0.882926 9:-0.880356 10:-0.229562 11:0.508267 
0.5 1:-0.544336 2:0.017534 3:-0.469797 4:-0.251701 5:-0.999593 6:0.852334 7:-0.549324 8:-0.980268 9:-0.981636 10:0.512753 11:1 
0.3223827360585464 1:-0.150073 2:0.210316 3:-0.214273 4:-0.17146 5:-0.985121 6:0.335502 7:-0.730601 8:0.284662 9:-0.017251 10:-0.679164 11:-0.452642 
0.04577638067850909 1:-0.437993 2:0.335232 3:0.095129 4:0.053188 5:-0.908997 6:0.944171 7:-0.772203 8:0.012365 9:-0.334168 10:-0.761982 11:-0.550689 
0.5 1:0.110294 2:0.028837 3:-0.191547 4:-0.978991 5:-0.99485 6:0.17664 7:-0.759479 8:-0.136543 9:-0.317752 10:-0.630332 11:-0.336623 
0.1995461350471177 1:-0.143643 2:0.525833 3:-0.734904 4:0.317133 5:-0.995156 6:0.826008 7:-0.723295 8:0.210997 9:-0.122705 10:-0.706723 11:-0.481781 
0.3786222596358947 1:-0.079457 2:0.218415 3:0.101508 4:-0.207214 5:-0.920192 6:0.884258 7:-0.393129 8:-0.066298 9:-0.269616 10:-0.331778 11:-0.38137 
0.5 1:0.537725 2:0.660362 3:-0.793673 4:0.654548 5:-0.98219 6:0.66064 7:0.428517 8:-0.940016 9:-0.992209 10:-0.826225 11:1 
0.5 1:0.66381 2:0.410129 3:-0.823978 4:0.562031 5:-0.967189 6:0.578334 7:0.484471 8:-0.985793 9:-0.993322 10:-0.708693 11:1 
0.1043264263015255 1:0.654143 2:0.070624 3:-0.348437 4:0.598038 5:-0.963343 6:0.956578 7:-0.694574 8:-0.850303 9:-0.760156 10:-0.360767 11:0.804154 
0.5 1:-0.775745 2:0.828223 3:-0.450268 4:0.47021 5:-0.999267 6:1 7:-0.483437 8:-0.789529 9:-0.807457 10:0.13558 11:0.288197 
0.5 1:0.607548 2:0.501357 3:-0.717016 4:0.944186 5:0.789133 6:0.403132 7:-0.718923 8:-0.987635 9:-0.993044 10:-0.327954 11:1 
0.5 1:0.612484 2:0.480931 3:-0.78515 4:0.942161 5:-0.211264 6:0.600121 7:-0.667858 8:-0.848461 9:-0.779633 10:-0.40247 11:0.568003 
0.5 1:0.436137 2:0.795781 3:-0.806886 4:0.967094 5:-0.050569 6:0.611166 7:-0.696137 8:-0.85688 9:-0.79271 10:-0.207749 11:0.701974 
0.5 1:0.856481 2:0.951849 3:-0.388301 4:0.852618 5:-0.959801 6:0.875028 7:-0.100264 8:-0.630887 9:-0.82749 10:-0.917064 11:-0.077133 
0.5 1:0.854014 2:0.800943 3:-0.755361 4:0.930581 5:0.661127 6:0.632347 7:-0.714012 8:-0.715075 9:-0.563996 10:-0.376623 11:0.569155 
0.5 1:0.604356 2:0.768991 3:-0.725798 4:0.980446 5:-0.521601 6:0.341856 7:-0.536873 8:-0.373323 9:-0.355036 10:-0.271851 11:-0.028172 
0.5 1:0.764878 2:0.963108 3:-0.84841 4:0.92672 5:-0.033635 6:0.57198 7:-0.876368 8:-0.983162 9:-0.990262 10:-0.627447 11:1 
0.5 1:0.26237 2:0.980063 3:-0.504895 4:0.59981 5:-0.983493 6:0.629624 7:0.243137 8:-0.824783 9:-0.870061 10:-0.09383 11:0.412482 
0.5 1:0.771149 2:0.551733 3:-0.503261 4:0.582914 5:-0.959801 6:0.948559 7:-0.736495 8:-0.742699 9:-0.638008 10:-0.007142 11:0.55147 
0.5 1:0.553007 2:0.411597 3:-0.313074 4:-0.202848 5:-0.999837 6:0.88335 7:0.414189 8:-0.936333 9:-0.957151 10:-0.413705 11:1 
0.5 1:0.420039 2:0.527702 3:-0.855993 4:0.934251 5:0.77576 6:0.548529 7:-0.717395 8:-0.980005 9:-0.988314 10:-0.504052 11:1 
0.5 1:0.892367 2:0.603756 3:-0.611604 4:0.984749 5:0.820722 6:0.800136 7:-0.045322 8:-0.397527 9:-0.641903 10:-0.649916 11:-0.487559 
0.1835130969168846 1:0.677055 2:0.775221 3:-0.594033 4:0.609302 5:-0.959211 6:0.950526 7:-0.70874 8:-0.787161 9:-0.6931 10:-0.209086 11:0.620605 
0.5 1:0.713823 2:0.638289 3:-0.620099 4:0.755861 5:0.302735 6:0.732052 7:-0.895731 8:-0.767956 9:-0.65025 10:-0.8653 11:0.567695 
0.5 1:0.344533 2:0.953585 3:-0.708802 4:0.77744 5:-0.993568 6:0.159089 7:-0.300288 8:-0.970008 9:-0.981358 10:-0.261812 11:1 
0.3434607646782609 1:0.635668 2:0.956032 3:-0.580656 4:0.712514 5:-0.994688 6:0.906347 7:-0.633918 8:-0.774007 9:-0.700612 10:-0.31808 11:0.516163 
0.5 1:0.51762 2:0.125317 3:-0.151842 4:-0.043822 5:-0.900836 6:0.894243 7:-0.674682 8:-0.875559 9:-0.837507 10:-0.267676 11:0.785256 
0.4177616293725429 1:-0.608409 2:0.706689 3:-0.528679 4:0.779592 5:-0.981315 6:0.984568 7:-0.391234 8:-0.178637 9:-0.406789 10:-0.58103 11:-0.561773 
0.5 1:0.290558 2:0.796182 3:-0.558523 4:0.641829 5:-0.433712 6:0.19767 7:-0.060668 8:-0.203104 9:-0.589316 10:-1 11:-0.811536 
0.5 1:0.235654 2:0.986961 3:-0.583615 4:0.895206 5:-0.668821 6:0.831303 7:-0.826082 8:-0.990792 9:-0.99527 10:-0.835466 11:1 
0.5 1:0.475509 2:0.829024 3:-0.862944 4:0.420978 5:-0.987136 6:0.458961 7:0.112657 8:-0.968166 9:-0.984697 10:-0.293992 11:1 
0.5 1:-0.394885 2:0.658493 3:-0.565167 4:0.759342 5:-0.202858 6:0.523413 7:0.030192 8:-0.049724 9:-0.362549 10:-0.724783 11:-0.700432 
0.5 1:-0.553551 2:0.782831 3:-0.558647 4:0.639361 5:-0.145439 6:0.465315 7:-0.712698 8:-0.984215 9:-0.991653 10:-0.418489 11:1 
0.5 1:0.058605 2:0.752926 3:-0.794601 4:0.704351 5:-0.99369 6:0.388607 7:0.453437 8:-0.969745 9:-0.986366 10:-0.842479 11:1 
0.01648948159067521 1:0.519228 2:0.69187 3:-0.70706 4:0.911976 5:-0.294471 6:0.63613 7:-0.727032 8:-0.712181 9:-0.590985 10:-0.423907 11:0.440674 
0.5 1:-0.060711 2:0.641538 3:-0.690824 4:0.85053 5:0.08395 6:0.527952 7:0.103305 8:-0.121547 9:-0.373957 10:-0.777204 11:-0.517787 
0.4862221636961904 1:0.027633 2:0.097014 3:-0.661042 4:0.659168 5:-0.993283 6:0.978818 7:-0.726713 8:-0.05788 9:-0.063439 10:-0.598081 11:-0.123381 
0.5 1:-0.238983 2:0.97726 3:-0.509839 4:0.97994 5:-0.998697 6:0.974885 7:-0.513256 8:-0.965535 9:-0.980801 10:-0.170222 11:1 
0.5 1:0.352933 2:0.993814 3:-0.581725 4:0.997975 5:-0.999959 6:0.958545 7:-0.293644 8:-0.970534 9:-0.971063 10:0.875339 11:1 
0.0952285685330472 1:-0.154511 2:0.13938 3:-0.180712 4:0.505078 5:-0.987584 6:0.932521 7:-0.863964 8:-0.356748 9:-0.347524 10:-0.855543 11:-0.073864 
0.5 1:0.373196 2:0.782253 3:-0.733602 4:0.820978 5:-0.988887 6:0.529616 7:0.56156 8:-0.97448 9:-0.98581 10:-0.004046 11:1 
0.5 1:0.655365 2:0.783009 3:-0.785026 4:0.862617 5:-0.955058 6:0.731901 7:-0.035161 8:-0.811365 9:-0.897051 10:-0.973801 11:-0.298746 
0.5 1:0.294044 2:0.72618 3:-0.402656 4:0.582028 5:-0.915266 6:0.943717 7:-0.660581 8:-0.284399 9:-0.406233 10:-0.43289 11:-0.265433 
0.00344530590730049 1:-0.784575 2:0.614258 3:-0.182791 4:0.751242 5:-0.98734 6:0.827672 7:-0.71518 8:-0.244936 9:-0.255704 10:-0.440654 11:-0.110899 
0.1822398883588032 1:0.111901 2:0.03351 3:0.060531 4:-0.671824 5:-0.989701 6:0.719797 7:-0.717441 8:-0.318074 9:-0.354201 10:-0.519297 11:-0.105552 
0.5 1:-1 2:0.638423 3:-0.374078 4:0.712071 5:-0.98793 6:0.801195 7:-0.914657 8:-0.556959 9:-0.387869 10:-0.868279 11:0.35548 
0.5 1:0.899589 2:0.548618 3:-0.830385 4:0.886094 5:-0.935702 6:0.715107 7:0.026861 8:-0.792686 9:-0.834446 10:0.038337 11:0.350627 
0.2069586838613029 1:-0.514699 2:0.804949 3:-0.701497 4:0.922481 5:-0.974212 6:0.91255 7:-0.72033 8:-0.201789 9:-0.207846 10:-0.504826 11:-0.054987 
0.5 1:0.561633 2:-0.087001 3:-0.395631 4:0.415789 5:-0.991533 6:0.540207 7:-0.329334 8:-0.797685 9:-0.818308 10:-0.5811 11:0.040366 
0.3959685915415412 1:0.79422 2:0.597081 3:-0.166886 4:0.743458 5:-0.934949 6:0.829034 7:-0.623298 8:-0.294133 9:0.099054 10:-0.17503 11:0.510097 
0.5 1:0.47012 2:-0.586756 3:-0.545342 4:-0.920202 5:-0.999898 6:0.750208 7:0.17833 8:-0.900552 9:-0.900668 10:0.403783 11:0.657269 
0.5 1:0.701846 2:0.65747 3:-0.258842 4:0.841544 5:-0.945309 6:0.812694 7:-0.797198 8:-0.199421 9:0.260991 10:-0.503348 11:0.559346 
0.5 1:-0.258227 2:0.888211 3:-0.30249 4:0.811739 5:-0.940017 6:0.806793 7:-0.651071 8:1 9:1 10:-0.680032 11:-0.374871 
0.5 1:-0.021384 2:0.32602 3:0.263525 4:0.455656 5:-0.998127 6:0.718284 7:-0.116918 8:-0.795054 9:-0.890929 10:-0.772514 11:0.551347 
0.4384529938140569 1:0.735219 2:0.493837 3:-0.282313 4:0.707578 5:-0.997822 6:0.952795 7:-0.418705 8:-0.779006 9:-0.786867 10:-0.534261 11:0.15328 
0.5 1:0.860217 2:-0.546304 3:-0.754379 4:0.194495 5:-0.999512 6:0.968228 7:-0.353446 8:-0.877664 9:-0.920145 10:-0.558748 11:0.367284 
0.5 1:-0.128655 2:0.525255 3:-0.466895 4:0.742699 5:-0.979117 6:0.921325 7:-0.805609 8:0.837411 9:0.220089 10:-0.392009 11:-0.505737 
0.5 1:-0.392123 2:0.236483 3:-0.362167 4:0.379592 5:-0.945166 6:0.75505 7:-0.70624 8:-0.957643 9:-0.961046 10:-0.080954 11:0.936973 
0.5 1:-0.629532 2:0.606471 3:-0.381351 4:0.915963 5:-0.935112 6:0.900144 7:-0.648473 8:0.787687 9:0.737062 10:-0.666522 11:-0.177072 
0.5 1:0.379241 2:-0.277736 3:-0.008501 4:-0.935327 5:-0.99941 6:0.717528 7:0.132903 8:-0.97106 9:-0.973845 10:0.249733 11:1 
0.5 1:0.337673 2:0.011481 3:-0.676712 4:-0.205948 5:-0.999756 6:0.585899 7:0.286953 8:-0.922652 9:-0.941291 10:0.176813 11:1 
0.390191048550393 1:0.831758 2:0.515464 3:-0.535971 4:0.727195 5:-0.93444 6:0.896966 7:-0.790845 8:-0.248356 9:-0.070117 10:-0.506327 11:0.147543 
0.3864800225693489 1:-0.492851 2:0.920742 3:-0.640704 4:0.953235 5:-0.956015 6:0.933278 7:-0.656849 8:-0.599842 9:-0.429048 10:-0.105675 11:0.441497 
0.3449725610463071 1:-0.805925 2:0.758444 3:-0.491453 4:0.840532 5:-0.914961 6:0.84371 7:-0.614421 8:-0.069982 9:-0.183361 10:-0.635046 11:-0.393954 
0.5 1:-0.017105 2:0.678919 3:0.305137 4:0.60057 5:-0.972298 6:0.924805 7:-0.683064 8:-0.069718 9:-0.073734 10:-0.408216 11:-0.064343 
0.5 1:0.01312 2:0.005385 3:-0.21781 4:-1 5:-0.999288 6:0.689689 7:0.651373 8:-0.932912 9:-0.969393 10:-0.083534 11:1 
0.5 1:0.376162 2:0.17645 3:-0.63554 4:-0.090397 5:-0.999552 6:0.667297 7:0.168966 8:-0.954749 9:-0.972176 10:-0.267043 11:1 
0.5 1:-0.61305 2:0.189711 3:-0.709238 4:0.326246 5:-0.999959 6:0.698616 7:0.820589 8:-0.969482 9:-0.975515 10:-0.047765 11:1 
0.5 1:-0.334888 2:0.648881 3:-0.188769 4:0.797247 5:-0.995074 6:0.900144 7:-0.08189 8:-0.764009 9:-0.846132 10:-0.89361 11:0.246 
0.5 1:0.806174 2:0.680878 3:-0.479526 4:0.856542 5:-0.898332 6:0.863832 7:-0.691272 8:-0.944225 9:-0.943517 10:-0.188775 11:0.831709 
0.5 1:0.752176 2:-0.18713 3:-0.586426 4:0.388768 5:-0.999593 6:0.736591 7:-0.395925 8:-0.872402 9:-0.85281 10:-0.14332 11:0.499815 
0.5 1:0.745588 2:0.668996 3:-0.440948 4:0.850403 5:-0.904642 6:0.842953 7:-0.629657 8:-0.930545 9:-0.920145 10:-0.17299 11:0.818898 
0.5 1:0.753059 2:0.010013 3:-0.751337 4:0.887043 5:-0.999654 6:0.974885 7:-0.378208 8:-0.91055 9:-0.903172 10:-0.22595 11:0.451635 
0.2623256773656667 1:-0.453343 2:0.508611 3:-0.209434 4:0.469641 5:-0.950886 6:0.858991 7:-0.724603 8:-0.958169 9:-0.979688 10:-0.120756 11:0.991425 
0.5 1:-0.332873 2:0.659739 3:-0.566225 4:0.930074 5:-0.180814 6:0.748392 7:-0.699997 8:-0.869508 9:-0.82749 10:-0.199587 11:0.410878 
0.5 1:0.66381 2:0.888211 3:-0.779906 4:0.697579 5:-0.951761 6:0.884258 7:-0.527503 8:-0.932649 9:-0.913467 10:-0.656695 11:0.626116 
0.5 1:-0.665078 2:0.788527 3:-0.253198 4:0.85091 5:-0.029646 6:-0.090249 7:1 8:-0.982636 9:-0.991653 10:-0.378663 11:1 
0.5 1:-0.326986 2:0.289662 3:-0.58267 4:0.65689 5:-0.843804 6:0.122929 7:0.468009 8:-0.938963 9:-0.928492 10:0.343059 11:0.485914 
0.5 1:-0.031233 2:0.956522 3:-0.948286 4:0.992976 5:-0.188712 6:0.649747 7:-0.708896 8:-0.501447 9:-0.394268 10:-0.392244 11:0.14232 
0.5 1:-0.900132 2:0.477015 3:-0.272772 4:0.642335 5:-0.89192 6:0.465618 7:-0.68854 8:-0.588529 9:-0.404007 10:-0.203293 11:0.50475 
0.1779955917199612 1:-0.169227 2:0.655467 3:0.295775 4:0.447809 5:-0.970426 6:0.90786 7:-0.745662 8:-0.374112 9:-0.225376 10:-0.390297 11:0.241106 
-0.03841742455154216 1:0.26674 2:0.980909 3:-0.743998 4:0.984559 5:0.424472 6:0.096603 7:0.759502 8:-0.97106 9:-0.978297 10:-0.200948 11:1 
-0.5 1:-0.315259 2:0.846647 3:-0.687205 4:0.793324 5:-0.992367 6:0.800439 7:0.292202 8:-0.976322 9:-0.992766 10:-0.624538 11:1 
-0.5 1:-0.539536 2:0.574429 3:-0.730831 4:0.140452 5:-0.971728 6:-0.42855 7:0.484611 8:-0.988424 9:-0.996105 10:-0.924335 11:1 
-0.2649686317287996 1:-0.27317 2:0.771839 3:-0.562226 4:-0.045974 5:-0.981905 6:0.415841 7:0.511384 8:-0.964483 9:-0.980245 10:-0.654115 11:0.841826 
-0.5 1:0.363075 2:-1 3:-0.860169 4:-0.347825 5:-0.96951 6:0.030486 7:0.290354 8:-0.980531 9:-0.996105 10:-0.776665 11:1 
-0.5 1:0.435548 2:-0.811401 3:-0.765345 4:0.031735 5:-0.973662 6:0.290869 7:0.381039 8:-0.981847 9:-0.991375 10:-0.500346 11:1 
-0.05811684417910364 1:0.167438 2:0.800676 3:-0.653196 4:0.951084 5:0.199113 6:-0.065436 7:0.783928 8:-0.978164 9:-0.991375 10:-0.803802 11:1 
-0.5 1:-0.051677 2:0.930177 3:-0.574711 4:0.804208 5:-0.989579 6:0.010818 7:0.426006 8:-0.954749 9:-0.982193 10:-0.112031 11:0.942875 
-0.5 1:-0.327552 2:0.79369 3:-0.809784 4:0.863249 5:-0.987177 6:0.691959 7:0.436039 8:-0.932123 9:-0.940735 10:-0.041808 11:0.818548 
-0.1336084753261069 1:0.707642 2:0.084375 3:-0.351003 4:0.444455 5:-0.979646 6:0.56154 7:0.570483 8:-0.981321 9:-0.991096 10:-0.055247 11:1 
-0.5 1:-0.480308 2:0.841885 3:-0.015542 4:0.774909 5:-0.994199 6:0.325062 7:0.313977 8:-0.947382 9:-0.983306 10:-0.208312 11:1 
-0.1490913819168965 1:0.063473 2:-0.204085 3:-0.3 4:0.141465 5:-0.931855 6:0.205991 7:0.482541 8:-0.972639 9:-0.986923 10:-0.721875 11:1 
-0.3684022728502693 1:0.000192 2:0.866673 3:-0.673914 4:0.973738 5:0.971423 6:0.079507 7:0.667434 8:-0.984741 9:-0.991375 10:-0.256347 11:1 
-0.5 1:-0.459524 2:0.366428 3:-0.539415 4:0.249802 5:-0.985264 6:-0.336561 7:0.359433 8:-0.97106 9:-0.975515 10:-0.028509 11:1 
-0.5 1:-0.090619 2:0.980731 3:-0.699593 4:0.926214 5:0.559194 6:0.278312 7:0.225274 8:-0.900552 9:-0.998052 10:0.299574 11:1 
-0.4431479789912824 1:0.753331 2:0.939478 3:-0.632617 4:0.960449 5:-0.764098 6:0.786368 7:0.813765 8:-0.978164 9:-0.991653 10:-0.955483 11:1 
-0.04884287819432844 1:-0.094762 2:0.266966 3:-0.232857 4:0.201709 5:-0.967454 6:0.381345 7:0.277374 8:-0.967377 9:-0.981914 10:-0.378382 11:1 
-0.2261350979988724 1:0.546668 2:0.920208 3:-0.913538 4:0.956842 5:-0.692004 6:0.790756 7:-0.001854 8:-0.886083 9:-0.9399 10:-0.958649 11:-0.288464 
-0.5 1:-0.522488 2:0.247697 3:-0.266614 4:-0.219364 5:-0.957399 6:0.747182 7:0.306025 8:-0.988161 9:-0.995548 10:-0.272015 11:1 
-0.5 1:0.663833 2:-0.270793 3:-0.766189 4:0.788514 5:-0.982699 6:0.72131 7:-0.100567 8:-0.881873 9:-0.88926 10:-0.778917 11:0.091384 
-0.3024871668086915 1:0.043481 2:0.979262 3:0.128443 4:0.929442 5:-0.733709 6:0.419018 7:0.778888 8:-0.99237 9:-0.996383 10:-0.574463 11:1 
-0.5 1:-0.182268 2:0.327489 3:-0.17867 4:0.140769 5:-0.716795 6:0.809668 7:0.396623 8:-0.977111 9:-0.990262 10:-0.802793 11:1 
-0.3950675600770317 1:0.09646 2:0.59846 3:-0.883572 4:0.246069 5:-0.981743 6:0.110977 7:0.368007 8:-0.963957 9:-0.976628 10:-0.445767 11:1 
-0.5 1:0.627812 2:0.757154 3:-0.748352 4:0.409524 5:-0.994097 6:0.50556 7:0.638481 8:-0.987898 9:-0.99527 10:-0.404088 11:1 
-0.455698077213754 1:-0.30738 2:0.774776 3:-0.918894 4:0.916153 5:0.779852 6:0.740828 7:0.863452 8:-0.99316 9:-0.996661 10:-0.876464 11:1 
-0.07989767503771744 1:0.704201 2:0.876953 3:-0.798202 4:0.949755 5:0.559052 6:0.717074 7:0.874287 8:-0.973428 9:-0.989427 10:-0.85946 11:1 
-0.5 1:0.323636 2:0.916025 3:0.086677 4:0.674419 5:-0.994179 6:-0.221272 7:0.272171 8:-0.943699 9:-0.978297 10:-0.174491 11:1 
-0.02660402996918874 1:-0.46532 2:0.872369 3:-0.631656 4:0.82275 5:-0.978547 6:0.565171 7:0.409864 8:-0.92423 9:-0.945465 10:-0.304101 11:0.813058 
-0.5 1:0.833479 2:0.87722 3:0.677743 4:0.845341 5:-0.987808 6:0.283002 7:0.380254 8:-0.942647 9:-0.969672 10:-0.470629 11:0.862904 
-0.05087294433281928 1:0.410123 2:0.847848 3:-0.668602 4:0.796804 5:-0.933056 6:0.266056 7:0.508106 8:-0.991055 9:-0.994713 10:-0.764961 11:1 
-0.5 1:0.287162 2:0.947532 3:0.898443 4:0.782946 5:-0.953451 6:0.611922 7:0.658465 8:-0.992897 9:-0.992487 10:-0.993597 11:1 
-0.4156971582777087 1:0.364751 2:0.37386 3:-0.229104 4:0.749786 5:-0.971464 6:0.224601 7:0.871201 8:-0.955275 9:-1 10:-1 11:1 
-0.5 1:0.449178 2:0.995594 3:-0.813447 4:0.973991 5:-0.116618 6:-1 7:0.82975 8:-0.983689 9:-0.991653 10:-0.907894 11:1 
-0.5 1:0.467811 2:0.979752 3:-0.476273 4:0.722829 5:-0.993853 6:0.10553 7:0.090255 8:-0.920021 9:-0.95882 10:0.469034 11:1 
-0.5 1:0.027089 2:0.102755 3:-0.513057 4:0.581395 5:-0.846083 6:0.213405 7:0.00193 8:-0.917916 9:-0.928214 10:-0.888778 11:0.485914 
-0.5 1:0.354698 2:0.860131 3:-0.91391 4:0.912229 5:-0.796542 6:0.325819 7:0.011068 8:-0.904236 9:-0.906789 10:-0.969228 11:0.314559 
-0.5 1:0.37906 2:0.426283 3:0.431137 4:0.628034 5:-0.906942 6:0.976549 7:-0.009736 8:-0.696396 9:-0.892877 10:-1 11:-0.884989 
-0.5 1:0.458619 2:0.885586 3:-0.772793 4:0.557095 5:-0.904113 6:0.083894 7:0.107536 8:-0.765588 9:-0.866444 10:-1 11:-0.370903 
-0.03930988849573858 1:-0.222591 2:0.663121 3:-0.689932 4:0.97551 5:0.082403 6:-0.050609 7:0.658901 8:-0.970008 9:-0.985253 10:-0.4263 11:1 
-0.5 1:0.645992 2:0.897601 3:-0.514525 4:0.973802 5:0.857319 6:0.735381 7:0.130578 8:-0.937648 9:-0.993879 10:-0.806875 11:1 
-0.2137711375563574 1:0.578455 2:0.736015 3:-0.765438 4:0.685303 5:-0.580709 6:0.290415 7:0.002238 8:-0.936859 9:-0.987479 10:-0.991228 11:0.77152 
-0.5 1:0.4516 2:0.766989 3:-0.725015 4:0.917924 5:-0.60379 6:0.754142 7:-0.006993 8:-0.930018 9:-0.989427 10:-0.965662 11:1 
-0.03574534219576254 1:0.481237 2:0.990432 3:-0.900066 4:0.999367 5:0.303712 6:0.67108 7:0.861697 8:-0.977637 9:-0.986366 10:-0.838679 11:1 
-0.2043821492068086 1:-0.415624 2:0.75791 3:-0.860891 4:0.928682 5:-0.643093 6:-0.183448 7:0.759607 8:-0.984215 9:-0.988592 10:-0.586894 11:1 
-0.5 1:-0.367196 2:0.114281 3:-0.709495 4:0.913874 5:0.04715 6:0.17906 7:0.805075 8:-0.982636 9:-0.999165 10:-0.697599 11:1 
-0.09610041857543258 1:0.234409 2:0.141293 3:-0.578559 4:0.697579 5:0.185882 6:0.660489 7:0.640073 8:-0.973428 9:-0.985531 10:-0.538671 11:1 
-0.1780332235001099 1:0.828996 2:0.979574 3:-0.883468 4:0.997089 5:-0.306581 6:0.759437 7:-0.005912 8:-0.970534 9:-0.98414 10:-0.882539 11:1 
-0.04926346870105931 1:0.749958 2:0.871924 3:-0.704916 4:0.668217 5:-0.88329 6:0.26651 7:0.405516 8:-0.9608 9:-0.977184 10:-0.496968 11:1 
-0.5 1:0.439646 2:0.854301 3:-0.744554 4:0.860465 5:-0.974293 6:0.495121 7:-0.165315 8:-0.938174 9:-0.955481 10:-0.005054 11:0.897183 
-0.2745934471182331 1:-0.080114 2:0.962885 3:-0.895947 4:0.948046 5:-0.511078 6:-0.146532 7:0.85357 8:-0.983689 9:-0.991931 10:-0.774648 11:1 
-0.3530507857670424 1:0.938712 2:0.884607 3:-0.951959 4:0.779782 5:0.315558 6:0.686209 7:0.117034 8:-0.960537 9:-0.968002 10:-0.724033 11:1 
-0.161071751728734 1:0.73875 2:0.987317 3:-0.925428 4:0.989875 5:0.701021 6:0.341554 7:0.781742 8:-0.965272 9:-0.980245 10:-0.467885 11:1 
-0.5 1:0.822951 2:0.832095 3:-0.816709 4:0.845721 5:-0.985569 6:0.697103 7:0.553905 8:-0.992107 9:-0.997496 10:0.700414 11:1 
-0.03437443040508487 1:0.876247 2:0.937074 3:-0.764595 4:0.966841 5:-0.125859 6:0.545503 7:0.855099 8:-0.991844 9:-0.996661 10:-0.875573 11:1 
-0.4735283905661231 1:0.831147 2:0.910729 3:-0.600444 4:0.864199 5:-0.986546 6:0.04955 7:0.641399 8:-0.95317 9:-0.991375 10:-0.112008 11:1 
-0.0132260478963446 1:0.212584 2:0.677139 3:-1 4:0.985129 5:-0.021463 6:0.416143 7:0.721882 8:-0.98895 9:-0.9936 10:-0.187977 11:1 
-0.1342556623596334 1:0.682375 2:0.475235 3:-0.833218 4:0.911786 5:-0.981396 6:0.568197 7:0.580928 8:-0.97448 9:-0.989427 10:-0.457917 11:1 
-0.5 1:0.312496 2:0.801922 3:-0.599231 4:0.553615 5:-0.985996 6:0.845525 7:0.294597 8:-0.960011 9:-0.979132 10:-0.24713 11:1 
-0.145862503332368 1:-0.064831 2:0.320947 3:-0.801679 4:0.712704 5:-0.974089 6:0.384674 7:0.229634 8:-0.956327 9:-0.967168 10:-0.201534 11:1 
-0.09620572693039496 1:-0.0553 2:0.152374 3:-0.781655 4:0.869957 5:-0.960941 6:0.137756 7:0.472195 8:-0.983952 9:-0.991931 10:-0.463147 11:1 
-0.2516269358327125 1:0.769994 2:0.581906 3:-0.576111 4:0.791236 5:0.026613 6:0.137605 7:0.816694 8:-0.968956 9:-0.98887 10:-0.872219 11:1 
-0.5 1:0.567271 2:-0.050732 3:-0.068459 4:-0.347382 5:-0.981987 6:0.648687 7:0.270282 8:-0.976585 9:-0.988592 10:-0.735268 11:1 
-0.1282894859976154 1:0.626023 2:0.576832 3:-0.677128 4:0.913495 5:-0.455715 6:-0.197065 7:0.694853 8:-0.982899 9:-0.989983 10:-0.474288 11:1 
-0.4586940476557093 1:-0.101034 2:-0.05585 3:-0.309756 4:0.086664 5:-0.965704 6:-0.466223 7:0.373732 8:-0.986056 9:-0.994157 10:-0.449801 11:1 
-0.2712430689889812 1:0.757361 2:0.488407 3:-0.491252 4:0.314665 5:-0.920396 6:0.58953 7:0.553277 8:-0.97106 9:-0.981636 10:-0.337805 11:1 
-0.5 1:0.71817 2:-0.054648 3:-0.783623 4:0.868818 5:-0.353273 6:0.496634 7:0.025419 8:-0.992107 9:-0.996661 10:-0.973637 11:1 
-0.1811565591607117 1:0.920034 2:0.909038 3:-0.799525 4:0.892485 5:-0.868147 6:0.78773 7:-0.066847 8:-0.799526 9:-0.923205 10:-0.974364 11:-0.708349 
-0.3404561689029279 1:0.853629 2:0.435183 3:-0.854767 4:0.916849 5:-0.803869 6:0.952493 7:-0.001325 8:-0.88161 9:-0.918753 10:-0.919832 11:-0.221592 
-0.5 1:0.882767 2:0.967024 3:-0.611695 4:0.773454 5:-0.877327 6:0.948256 7:-0.105572 8:-0.802947 9:-0.902894 10:-0.953701 11:-0.454493 
-0.4733411274507787 1:-0.612552 2:0.872458 3:-0.771593 4:0.864642 5:-0.142183 6:0.68394 7:0.856116 8:-0.985793 9:-0.996939 10:-0.931747 11:1 
-0.2436823975931805 1:-0.393097 2:0.907347 3:-0.70166 4:0.923999 5:0.109718 6:0.116423 7:0.826588 8:-0.973428 9:-0.986644 10:-0.600943 11:1 
-0.1027923680942334 1:0.661546 2:0.3707 3:-0.64222 4:0.699604 5:0.185272 6:0.833422 7:0.848967 8:-0.987372 9:-0.990818 10:-0.565268 11:1 
-0.1950866252159327 1:-0.351348 2:0.718081 3:-0.928542 4:0.894384 5:-0.365303 6:0.574249 7:0.803802 8:-0.99658 9:-0.990818 10:-0.198438 11:1 
-0.5 1:0.805653 2:0.603622 3:-0.676245 4:0.925581 5:-0.989681 6:0.991376 7:-0.643631 8:-0.943173 9:-0.925153 10:-0.160277 11:0.675324 
-0.5 1:0.368555 2:0.887633 3:-0.489348 4:0.093751 5:-0.931265 6:0.195703 7:0.338565 8:-0.984741 9:-0.99527 10:-0.62937 11:1 
-0.5 1:0.857047 2:0.664145 3:-0.631023 4:0.634805 5:-0.988419 6:0.658673 7:-0.634621 8:-0.983689 9:-0.990262 10:-0.251539 11:1 
-0.5 1:0.898932 2:0.680477 3:-0.536571 4:0.640943 5:-0.992978 6:0.431273 7:-0.365449 8:-0.956853 9:-0.967446 10:-0.173177 11:1 
-0.5 1:0.79499 2:0.732277 3:-0.627991 4:0.972916 5:-0.110471 6:0.116121 7:0.345651 8:0.384109 9:-0.442404 10:-0.891171 11:-0.945795 
-0.1450852372035812 1:0.596205 2:0.080192 3:-0.527962 4:0.595887 5:-0.968757 6:0.659581 7:0.177975 8:-0.990266 9:-0.994157 10:-0.019573 11:1 
-0.5 1:0.481486 2:0.668551 3:-0.031012 4:0.863503 5:-0.91775 6:0.446857 7:0.272735 8:-0.880821 9:-0.894546 10:0.065966 11:0.451635 
-0.5 1:0.879348 2:0.836367 3:-0.519432 4:0.948742 5:-0.906596 6:0.62448 7:0.299201 8:-0.088135 9:-0.249026 10:-0.567708 11:-0.251696 
-0.4042361620962975 1:0.761527 2:0.558854 3:-0.419194 4:0.857554 5:0.920966 6:0.692412 7:0.647601 8:-0.984478 9:-0.984697 10:-0.025507 11:0.991775 
-0.5 1:0.310278 2:0.528548 3:-0.775597 4:0.839709 5:-0.982435 6:0.834027 7:-0.33728 8:-0.966851 9:-0.980801 10:-0.25372 11:1 
-0.5 1:0.933052 2:-0.057363 3:-0.821187 4:0.239994 5:-0.99025 6:0.88456 7:0.590438 8:-0.98553 9:-0.990818 10:0.356499 11:1 
-0.1557414130453463 1:-0.285758 2:0.715322 3:-0.464571 4:0.866287 5:0.935397 6:0.886527 7:0.721964 8:-0.970271 9:-0.986366 10:-0.433477 11:1 
-0.5 1:-0.841199 2:0.271461 3:-0.640571 4:0.86306 5:-0.979768 6:0.791966 7:0.184794 8:-0.9608 9:-0.97468 10:-0.3394 11:0.920913 
-0.5 1:0.841425 2:-0.162343 3:-0.81085 4:0.750736 5:-0.972013 6:0.572434 7:0.156491 8:-0.418311 9:-0.498887 10:-0.527764 11:-0.246268 
-0.03647638592234335 1:0.815094 2:0.556139 3:-0.208494 4:0.700427 5:-0.980766 6:0.832211 7:0.4536 8:-0.988424 9:-0.989983 10:-0.606689 11:1 
-0.3973089004425442 1:0.576101 2:0.304259 3:-0.77355 4:0.56798 5:-0.854082 6:0.839625 7:0.471253 8:-0.987109 9:-0.993044 10:-0.541087 11:1 
-0.5 1:0.603315 2:0.182413 3:-0.727476 4:0.473185 5:-0.994504 6:0.830396 7:-0.577476 8:-0.959221 9:-0.979967 10:1 11:1 
-0.2523370200742458 1:0.925829 2:0.942548 3:-0.653278 4:0.94311 5:-0.121991 6:0.710871 7:0.741332 8:-0.985267 9:-0.989983 10:-0.169026 11:1 
-0.4736601606139196 1:0.46978 2:0.691914 3:0.104261 4:0.400664 5:-0.99424 6:0.686814 7:-0.582783 8:-0.974743 9:-0.972454 10:0.245652 11:0.914312 
-0.5 1:0.523507 2:0.947755 3:-0.681108 4:0.957981 5:-0.273852 6:0.824344 7:-0.767379 8:-0.997106 9:-0.989149 10:-0.50241 11:1 
-0.1728538882627447 1:0.84421 2:0.082417 3:-0.29994 4:0.659674 5:-0.928659 6:0.693018 7:0.807737 8:-0.94633 9:-0.96049 10:-0.420764 11:0.88575 
-0.5 1:0.260446 2:0.793378 3:-0.501185 4:0.958234 5:-0.637028 6:0.550647 7:-0.459116 8:-0.367798 9:-0.414858 10:-0.38645 11:-0.142422 
-0.5 1:0.924064 2:0.292822 3:-0.722335 4:0.766682 5:-0.900428 6:0.712081 7:0.02571 8:-0.870034 9:-0.816639 10:0.287566 11:0.588731 
-0.5 1:0.796371 2:0.459437 3:-0.458502 4:0.757507 5:0.202858 6:0.903321 7:0.448229 8:-0.722705 9:-0.82916 10:-0.369704 11:-0.396772 
-0.444725178625854 1:0.635962 2:0.311157 3:-0.329414 4:0.540263 5:-0.651825 6:0.777442 7:0.448967 8:-0.807419 9:-0.810239 10:-0.352722 11:-0.009192 
-0.5 1:0.819102 2:0.972943 3:-0.975492 4:1 5:-0.334935 6:0.85188 7:-0.790769 8:-0.97527 9:-0.986088 10:-0.338462 11:1 
-0.1914093996280874 1:0.964477 2:0.851675 3:-0.889785 4:0.937099 5:-0.410773 6:0.837507 7:-0.014997 8:-0.783478 9:-0.883695 10:-0.99735 11:-0.473082 
-0.02339074815418725 1:0.918381 2:0.845935 3:-0.441675 4:0.718209 5:-0.982475 6:0.888343 7:0.318912 8:-0.983689 9:-0.98887 10:-0.224519 11:0.862904 
-0.5 1:0.940342 2:0.900627 3:-0.749124 4:0.96007 5:-0.703036 6:0.742189 7:-0.823885 8:-0.505393 9:-0.567056 10:-0.567262 11:-0.222373 
-0.3117813883965427 1:0.689688 2:0.912331 3:-0.726225 4:0.924759 5:-0.963322 6:0.983962 7:0.609812 8:-0.97185 9:-0.982193 10:-0.182583 11:1 
-0.4181828365780554 1:0.980099 2:0.994259 3:-0.632692 4:0.907926 5:-0.938572 6:0.857175 7:0.354219 8:-0.714549 9:-0.755982 10:-0.774296 11:-0.175057 
-0.5 1:0.78136 2:0.613057 3:-0.3825 4:0.679481 5:0.455389 6:0.864438 7:0.316831 8:-0.716127 9:-0.864218 10:-0.61328 11:-0.590335 
-0.5 1:0.413632 2:0.957011 3:-0.770952 4:0.932416 5:-0.696482 6:0.744005 7:-0.449536 8:-0.529334 9:-0.570117 10:-0.241336 11:-0.086778 
-0.5 1:0.525408 2:0.324952 3:0.247228 4:-0.528429 5:-0.962142 6:0.703457 7:-0.604197 8:-0.893449 9:-0.887034 10:-0.099436 11:0.716368 
-0.5 1:0.498942 2:0.841841 3:-0.19903 4:-0.039519 5:-0.980786 6:0.854603 7:-0.464185 8:-0.981321 9:-0.987201 10:-0.153452 11:1 
-0.1548363451105426 1:0.919603 2:0.734369 3:-0.693985 4:0.917038 5:-0.988866 6:0.950677 7:-0.026512 8:-0.827414 9:-0.890373 10:-0.974036 11:-0.423627 
-0.5 1:0.269796 2:0.990165 3:-0.96227 4:0.99538 5:-0.29616 6:0.800741 7:-0.808283 8:-0.969482 9:-0.983862 10:-0.445181 11:1 
-0.5 1:0.685839 2:0.483156 3:-0.26431 4:0.861857 5:0.042163 6:-0.220819 7:-0.356794 8:-0.957643 9:-0.996661 10:-0.817453 11:1 
-0.3940040628914269 1:0.874118 2:1 3:-0.925437 4:0.801487 5:0.925016 6:0.920115 7:0.452704 8:-0.973691 9:-0.988592 10:-0.171934 11:1 
-0.3076401408686638 1:0.8268 2:0.884918 3:-0.013399 4:0.813637 5:-0.98909 6:0.646115 7:-0.242137 8:-0.964483 9:-0.984697 10:-0.002732 11:1 
-0.1336003353876736 1:0.437676 2:0.559966 3:-0.863221 4:0.809714 5:-0.975148 6:0.824646 7:0.209818 8:-0.97448 9:-0.980801 10:0.410233 11:1 
-0.02400110189486486 1:-0.102324 2:0.730097 3:-0.709489 4:0.914444 5:0.890129 6:0.884409 7:0.587979 8:-0.972902 9:-0.985531 10:0.135345 11:0.987765 
-0.3322762685113336 1:0.217248 2:0.164034 3:-0.162783 4:0.841734 5:-0.706028 6:0.760496 7:0.266765 8:-0.962904 9:-0.978575 10:0.162576 11:1 
-0.4615852238755139 1:0.428439 2:0.509857 3:-0.747659 4:0.483373 5:0.804948 6:0.831152 7:0.596629 8:-0.898974 9:-0.897885 10:-0.619707 11:0.446371 
-0.2464482333009104 1:0.428439 2:0.726759 3:-0.758922 4:0.631071 5:-0.431657 6:0.90786 7:0.132566 8:-0.887924 9:-0.997218 10:-1 11:1 
-0.5 1:-0.345257 2:0.39887 3:-0.732095 4:0.852049 5:-0.993019 6:0.830698 7:0.138768 8:-0.868719 9:-0.892321 10:0.023701 11:0.34197 
-0.2228787704503874 1:1 2:0.236572 3:-0.842826 4:0.922987 5:-0.495934 6:0.85884 7:0.29959 8:-0.918706 9:-0.911797 10:0.119208 11:0.626116 
-0.4454099069467441 1:-0.324428 2:0.821726 3:-0.468159 4:0.89527 5:0.803035 6:0.877298 7:0.588002 8:-0.972902 9:-0.986923 10:0.099764 11:1 
-0.5 1:0.027271 2:0.904766 3:-0.348092 4:0.264926 5:-0.825648 6:0.830547 7:-1 8:-0.96422 9:-0.968002 10:-0.294062 11:0.876619 
-0.5 1:0.172329 2:0.596369 3:-0.578117 4:0.197026 5:-0.972176 6:0.831909 7:-0.497992 8:-0.930282 9:-0.913467 10:0.425643 11:0.706231 
-0.5 1:0.483659 2:0.966446 3:-0.05683 4:0.685872 5:-0.852861 6:0.852485 7:-0.712727 8:-0.916338 9:-0.891764 10:0.037305 11:0.669093 
-0.5 1:0.439872 2:0.547951 3:-0.753026 4:0.515646 5:-0.980786 6:0.780165 7:0.398628 8:-0.656406 9:-0.586255 10:-0.998382 11:0.177462 
-0.5 1:0.734041 2:0.501135 3:-0.843193 4:0.663851 5:-0.672077 6:0.842651 7:0.084198 8:-0.868456 9:-0.895938 10:-0.06341 11:0.383097 
-0.2065710400840298 1:0.123584 2:0.680077 3:-0.715278 4:0.901092 5:0.160949 6:0.634768 7:0.44241 8:-0.873717 9:-0.805509 10:-0.319769 11:0.488957 
-0.5 1:0.669697 2:0.892261 3:-0.440563 4:0.857871 5:0.175746 6:0.687117 7:0.140367 8:0.692186 9:-0.54424 10:-0.999883 11:-1 
-0.5 1:0.50682 2:-0.03707 3:-0.096641 4:-0.209555 5:-0.947283 6:0.127165 7:-0.311913 8:-0.907393 9:-0.894268 10:-0.146908 11:0.383097 
